{"learner":{"attributes":{"best_iteration":"180","best_score":"166.94697683292793"},"feature_names":["race_distance_km","nb_laps","laps_distance_km","pit_stop_time_sec","nb_turns","power","accel","handl","fuel_consumption","tyre_wear","downforce","grip_level","susp_rigid","overtaking","car_pwr","car_hdl","car_acl","driver_oal","driver_con","driver_tal","driver_agr","driver_exp","driver_tei","driver_wei"],"feature_types":["float","int","float","float","int","int","int","int","c","c","c","c","c","c","int","int","int","int","int","int","int","int","int","int"],"gradient_booster":{"model":{"gbtree_model_param":{"num_parallel_tree":"1","num_trees":"231"},"iteration_indptr":[0,1,2,3,4,5,6,7,8,9,10,11,12,13,14,15,16,17,18,19,20,21,22,23,24,25,26,27,28,29,30,31,32,33,34,35,36,37,38,39,40,41,42,43,44,45,46,47,48,49,50,51,52,53,54,55,56,57,58,59,60,61,62,63,64,65,66,67,68,69,70,71,72,73,74,75,76,77,78,79,80,81,82,83,84,85,86,87,88,89,90,91,92,93,94,95,96,97,98,99,100,101,102,103,104,105,106,107,108,109,110,111,112,113,114,115,116,117,118,119,120,121,122,123,124,125,126,127,128,129,130,131,132,133,134,135,136,137,138,139,140,141,142,143,144,145,146,147,148,149,150,151,152,153,154,155,156,157,158,159,160,161,162,163,164,165,166,167,168,169,170,171,172,173,174,175,176,177,178,179,180,181,182,183,184,185,186,187,188,189,190,191,192,193,194,195,196,197,198,199,200,201,202,203,204,205,206,207,208,209,210,211,212,213,214,215,216,217,218,219,220,221,222,223,224,225,226,227,228,229,230,231],"tree_info":[0,0,0,0,0,0,0,0,0,0,0,0,0,0,0,0,0,0,0,0,0,0,0,0,0,0,0,0,0,0,0,0,0,0,0,0,0,0,0,0,0,0,0,0,0,0,0,0,0,0,0,0,0,0,0,0,0,0,0,0,0,0,0,0,0,0,0,0,0,0,0,0,0,0,0,0,0,0,0,0,0,0,0,0,0,0,0,0,0,0,0,0,0,0,0,0,0,0,0,0,0,0,0,0,0,0,0,0,0,0,0,0,0,0,0,0,0,0,0,0,0,0,0,0,0,0,0,0,0,0,0,0,0,0,0,0,0,0,0,0,0,0,0,0,0,0,0,0,0,0,0,0,0,0,0,0,0,0,0,0,0,0,0,0,0,0,0,0,0,0,0,0,0,0,0,0,0,0,0,0,0,0,0,0,0,0,0,0,0,0,0,0,0,0,0,0,0,0,0,0,0,0,0,0,0,0,0,0,0,0,0,0,0,0,0,0,0,0,0,0,0,0,0,0,0,0,0,0,0,0,0],"trees":[{"base_weights":[-0E0,-8.498553E1,6.8033554E1,-5.3601376E1,-4.7424526E0,8.636984E1,-1.429082E-1,-8.292919E1,1.3997178E-1,2.803769E0,6.742127E1,-1.9139972E0,-2.495549E0,2.122534E0,1.46168E0],"categories":[0],"categories_nodes":[2],"categories_segments":[0],"categories_sizes":[1],"default_left":[0,0,1,0,0,0,0,0,0,0,0,0,0,0,0],"id":0,"left_children":[1,3,5,7,-1,9,-1,11,-1,-1,13,-1,-1,-1,-1],"loss_changes":[5.2190656E4,1.1435268E4,6.7626855E3,5.216124E3,0E0,1.2723262E3,0E0,1.2332617E2,0E0,0E0,2.2832031E2,0E0,0E0,0E0,0E0],"parents":[2147483647,0,0,1,1,2,2,3,3,5,5,7,7,10,10],"right_children":[2,4,6,8,-1,10,-1,12,-1,-1,14,-1,-1,-1,-1],"split_conditions":[4E1,3.087E2,1E-45,3.056E2,-4.7424526E0,2.5E1,-1.429082E-1,3.05E2,1.3997178E-1,2.803769E0,3.059E2,-1.9139972E0,-2.495549E0,2.122534E0,1.46168E0],"split_indices":[21,0,10,0,0,14,0,0,0,0,0,0,0,0,0],"split_type":[0,0,1,0,0,0,0,0,0,0,0,0,0,0,0],"sum_hessian":[9E0,4E0,5E0,3E0,1E0,4E0,1E0,2E0,1E0,2E0,2E0,1E0,1E0,1E0,1E0],"tree_param":{"num_deleted":"0","num_feature":"24","num_nodes":"15","size_leaf_vector":"1"}},{"base_weights":[-1.2794731E1,-8.273999E1,5.715573E1,-5.2184464E1,-4.6170907E0,-1.391312E-1,7.791978E1,-8.073899E1,1.3627222E-1,8.980917E1,1.423042E0,-1.8634022E0,-2.4295812E0,2.066426E0,2.7092729E0],"categories":[],"categories_nodes":[],"categories_segments":[],"categories_sizes":[],"default_left":[0,0,0,0,0,0,0,0,0,0,0,0,0,0,0],"id":1,"left_children":[1,3,5,7,-1,-1,9,11,-1,13,-1,-1,-1,-1,-1],"loss_changes":[3.927346E4,1.0838047E4,5.2120176E3,4.9446406E3,0E0,0E0,8.034219E2,1.1625488E2,0E0,1.5857422E2,0E0,0E0,0E0,0E0,0E0],"parents":[2147483647,0,0,1,1,2,2,3,3,6,6,7,7,9,9],"right_children":[2,4,6,8,-1,-1,10,12,-1,14,-1,-1,-1,-1,-1],"split_conditions":[9.6E1,3.087E2,6E1,3.056E2,-4.6170907E0,-1.391312E-1,3.067E2,3.05E2,1.3627222E-1,3.059E2,1.423042E0,-1.8634022E0,-2.4295812E0,2.066426E0,2.7092729E0],"split_indices":[22,0,1,0,0,0,0,0,0,0,0,0,0,0,0],"split_type":[0,0,0,0,0,0,0,0,0,0,0,0,0,0,0],"sum_hessian":[8E0,4E0,4E0,3E0,1E0,1E0,3E0,2E0,1E0,2E0,1E0,1E0,1E0,1E0,1E0],"tree_param":{"num_deleted":"0","num_feature":"24","num_nodes":"15","size_leaf_vector":"1"}},{"base_weights":[-9.698147E0,8.466507E1,-8.0553825E1,2.6949697E0,1.3854253E0,-5.080502E1,-4.4950423E0,1.3266948E-1,-7.860669E1,-2.3653579E0,-1.8141447E0],"categories":[1,0,1,4],"categories_nodes":[0,1],"categories_segments":[0,1],"categories_sizes":[1,3],"default_left":[1,1,0,0,0,0,0,0,0,0,0],"id":2,"left_children":[1,3,5,-1,-1,7,-1,-1,9,-1,-1],"loss_changes":[4.698227E4,1.4909785E3,1.0271996E4,0E0,0E0,4.6873E3,0E0,0E0,1.09569336E2,0E0,0E0],"parents":[2147483647,0,0,1,1,2,2,5,5,8,8],"right_children":[2,4,6,-1,-1,8,-1,-1,10,-1,-1],"split_conditions":[1E-45,1E-45,3.9E1,2.6949697E0,1.3854253E0,6E1,-4.4950423E0,1.3266948E-1,7.1E1,-2.3653579E0,-1.8141447E0],"split_indices":[8,8,21,0,0,1,0,0,1,0,0],"split_type":[1,1,0,0,0,0,0,0,0,0,0],"sum_hessian":[7E0,3E0,4E0,2E0,1E0,3E0,1E0,1E0,2E0,1E0,1E0],"tree_param":{"num_deleted":"0","num_feature":"24","num_nodes":"11","size_leaf_vector":"1"}},{"base_weights":[1.1667966E1,5.4240383E1,-1.1548954E2,3.2103867E1,2.6232603E0,-1.7661892E0,-4.3762193E0,2.040293E0,6.1881104E1,-1.6629562E-2,1.2916192E-1,1.9405636E0,1.3488023E0],"categories":[],"categories_nodes":[],"categories_segments":[],"categories_sizes":[],"default_left":[0,0,0,0,0,0,0,0,0,0,0,0,0],"id":3,"left_children":[1,3,5,7,-1,-1,-1,9,11,-1,-1,-1,-1],"loss_changes":[4.345344E4,5.7550293E3,4.5999453E3,3.581525E3,0E0,0E0,0E0,1.5570805E1,1.7831738E2,0E0,0E0,0E0,0E0],"parents":[2147483647,0,0,1,1,2,2,3,3,7,7,8,8],"right_children":[2,4,6,8,-1,-1,-1,10,12,-1,-1,-1,-1],"split_conditions":[7.5E1,7.6E1,3.05E2,6E1,2.6232603E0,-1.7661892E0,-4.3762193E0,3.084E2,3.059E2,-1.6629562E-2,1.2916192E-1,1.9405636E0,1.3488023E0],"split_indices":[1,18,0,1,0,0,0,0,0,0,0,0,0],"split_type":[0,0,0,0,0,0,0,0,0,0,0,0,0],"sum_hessian":[8E0,6E0,2E0,4E0,2E0,1E0,1E0,2E0,2E0,1E0,1E0,1E0,1E0],"tree_param":{"num_deleted":"0","num_feature":"24","num_nodes":"13","size_leaf_vector":"1"}},{"base_weights":[1.1355238E1,5.2802174E1,-1.1243864E2,7.808304E1,1.9843904E0,-4.2605376E0,-1.719502E0,2.5534592E0,6.0247288E1,-1.6190715E-2,1.2574793E-1,1.3131475E0,1.8892668E0],"categories":[0,1],"categories_nodes":[1],"categories_segments":[0],"categories_sizes":[2],"default_left":[0,1,0,0,0,0,0,0,0,0,0,0,0],"id":4,"left_children":[1,3,5,7,9,-1,-1,-1,11,-1,-1,-1,-1],"loss_changes":[4.1185363E4,7.711379E3,4.359078E3,1.1347969E3,1.4774366E1,0E0,0E0,0E0,1.6853955E2,0E0,0E0,0E0,0E0],"parents":[2147483647,0,0,1,1,2,2,3,3,4,4,8,8],"right_children":[2,4,6,8,10,-1,-1,-1,12,-1,-1,-1,-1],"split_conditions":[7.5E1,1E-45,7.8E1,2.6E1,5.411E0,-4.2605376E0,-1.719502E0,2.5534592E0,6.2E1,-1.6190715E-2,1.2574793E-1,1.3131475E0,1.8892668E0],"split_indices":[1,8,1,15,2,0,0,0,1,0,0,0,0],"split_type":[0,1,0,0,0,0,0,0,0,0,0,0,0],"sum_hessian":[8E0,6E0,2E0,4E0,2E0,1E0,1E0,2E0,2E0,1E0,1E0,1E0,1E0],"tree_param":{"num_deleted":"0","num_feature":"24","num_nodes":"13","size_leaf_vector":"1"}},{"base_weights":[-9.884316E0,7.809729E1,-7.594788E1,1.278435E0,2.4855142E0,1.22424304E-1,-1.0273858E2,-7.5755264E1,-4.1479135E0,-2.3537006E0,-1.6740488E0],"categories":[1],"categories_nodes":[0],"categories_segments":[0],"categories_sizes":[1],"default_left":[1,0,0,0,0,0,0,0,0,0,0],"id":5,"left_children":[1,3,5,-1,-1,-1,7,9,-1,-1,-1],"loss_changes":[4.084258E4,1.264834E3,8.678182E3,0E0,0E0,0E0,4.0469766E3,2.2787012E2,0E0,0E0,0E0],"parents":[2147483647,0,0,1,1,2,2,6,6,7,7],"right_children":[2,4,6,-1,-1,-1,8,10,-1,-1,-1],"split_conditions":[1E-45,1.7E1,6E1,1.278435E0,2.4855142E0,1.22424304E-1,2.55E1,7.1E1,-4.1479135E0,-2.3537006E0,-1.6740488E0],"split_indices":[8,3,1,0,0,0,3,1,0,0,0],"split_type":[1,0,0,0,0,0,0,0,0,0,0],"sum_hessian":[7E0,3E0,4E0,1E0,2E0,1E0,3E0,2E0,1E0,1E0,1E0],"tree_param":{"num_deleted":"0","num_feature":"24","num_nodes":"11","size_leaf_vector":"1"}},{"base_weights":[7.93135E-2,7.413683E1,-7.394125E1,5.7386646E1,2.419377E0,1.191878E-1,-1.0002539E2,1.8055308E0,1.2446404E0,-7.375469E1,-4.038267E0,-1.6297961E0,-2.2914827E0],"categories":[1],"categories_nodes":[0],"categories_segments":[0],"categories_sizes":[1],"default_left":[1,0,0,0,0,0,0,0,0,0,0,0,0],"id":6,"left_children":[1,3,5,7,-1,-1,9,-1,-1,11,-1,-1,-1],"loss_changes":[4.4000133E4,9.970625E2,8.226436E3,1.6160889E2,0E0,0E0,3.8348555E3,0E0,0E0,2.1539941E2,0E0,0E0,0E0],"parents":[2147483647,0,0,1,1,2,2,3,3,6,6,9,9],"right_children":[2,4,6,8,-1,-1,10,-1,-1,12,-1,-1,-1],"split_conditions":[1E-45,1.7E1,1.8E1,1.5E1,2.419377E0,1.191878E-1,2.55E1,1.8055308E0,1.2446404E0,2.1E1,-4.038267E0,-1.6297961E0,-2.2914827E0],"split_indices":[8,3,3,3,0,0,3,0,0,3,0,0,0],"split_type":[1,0,0,0,0,0,0,0,0,0,0,0,0],"sum_hessian":[8E0,4E0,4E0,2E0,2E0,1E0,3E0,1E0,1E0,2E0,1E0,1E0,1E0],"tree_param":{"num_deleted":"0","num_feature":"24","num_nodes":"13","size_leaf_vector":"1"}},{"base_weights":[-2.9313732E1,3.883631E1,-9.738391E1,1.160368E-1,5.587164E1,-7.1806984E1,-3.931519E0,1.2117397E0,1.7578027E0,-2.2309089E0,-1.5867131E0],"categories":[],"categories_nodes":[],"categories_segments":[],"categories_sizes":[],"default_left":[0,0,0,0,0,0,0,0,0,0,0],"id":7,"left_children":[1,3,5,-1,7,9,-1,-1,-1,-1,-1],"loss_changes":[2.7954695E4,1.7589849E3,3.6338203E3,0E0,1.5273584E2,2.035957E2,0E0,0E0,0E0,0E0,0E0],"parents":[2147483647,0,0,1,1,2,2,4,4,5,5],"right_children":[2,4,6,-1,8,10,-1,-1,-1,-1,-1],"split_conditions":[6.9E1,6E1,2.55E1,1.160368E-1,6.2E1,7.1E1,-3.931519E0,1.2117397E0,1.7578027E0,-2.2309089E0,-1.5867131E0],"split_indices":[1,1,3,0,1,1,0,0,0,0,0],"split_type":[0,0,0,0,0,0,0,0,0,0,0],"sum_hessian":[6E0,3E0,3E0,1E0,2E0,2E0,1E0,1E0,1E0,1E0,1E0],"tree_param":{"num_deleted":"0","num_feature":"24","num_nodes":"11","size_leaf_vector":"1"}},{"base_weights":[4.499663E-1,-9.481226E1,5.7737026E1,-6.991078E1,-3.8275926E0,8.076462E1,2.2815996E1,-2.1719368E0,-1.5447692E0,2.3745673E0,1.7113364E0,3.0611401E-2,1.1797086E0],"categories":[1,0,1,4],"categories_nodes":[1,2],"categories_segments":[0,1],"categories_sizes":[1,3],"default_left":[0,1,1,0,0,0,0,0,0,0,0,0,0],"id":8,"left_children":[1,3,5,7,-1,9,11,-1,-1,-1,-1,-1,-1],"loss_changes":[4.379825E4,3.4433027E3,3.9914473E3,1.9242383E2,0E0,3.0283398E2,9.187815E2,0E0,0E0,0E0,0E0,0E0,0E0],"parents":[2147483647,0,0,1,1,2,2,3,3,5,5,6,6],"right_children":[2,4,6,8,-1,10,12,-1,-1,-1,-1,-1,-1],"split_conditions":[9.6E1,1E-45,1E-45,7.1E1,-3.8275926E0,1.3E1,6E1,-2.1719368E0,-1.5447692E0,2.3745673E0,1.7113364E0,3.0611401E-2,1.1797086E0],"split_indices":[22,13,8,1,0,7,1,0,0,0,0,0,0],"split_type":[0,1,1,0,0,0,0,0,0,0,0,0,0],"sum_hessian":[8E0,3E0,5E0,2E0,1E0,3E0,2E0,1E0,1E0,2E0,1E0,1E0,1E0],"tree_param":{"num_deleted":"0","num_feature":"24","num_nodes":"13","size_leaf_vector":"1"}},{"base_weights":[9.493181E0,-6.806473E1,4.8406437E1,-1.5039353E0,-2.1145236E0,2.980147E-2,6.4046974E1,5.296071E1,2.2790918E0,1.6660979E0,1.1485245E0],"categories":[],"categories_nodes":[],"categories_segments":[],"categories_sizes":[],"default_left":[0,0,0,0,0,0,0,0,0,0,0],"id":9,"left_children":[1,3,5,-1,-1,-1,7,9,-1,-1,-1],"loss_changes":[1.8189238E4,1.8184668E2,2.9579678E3,0E0,0E0,0E0,6.2225195E2,1.3638916E2,0E0,0E0,0E0],"parents":[2147483647,0,0,1,1,2,2,6,6,7,7],"right_children":[2,4,6,-1,-1,-1,8,10,-1,-1,-1],"split_conditions":[3.056E2,3.05E2,6E1,-1.5039353E0,-2.1145236E0,2.980147E-2,6.9E1,3.059E2,2.2790918E0,1.6660979E0,1.1485245E0],"split_indices":[0,0,1,0,0,0,1,0,0,0,0],"split_type":[0,0,0,0,0,0,0,0,0,0,0],"sum_hessian":[6E0,2E0,4E0,1E0,1E0,1E0,3E0,2E0,1E0,1E0,1E0],"tree_param":{"num_deleted":"0","num_feature":"24","num_nodes":"11","size_leaf_vector":"1"}},{"base_weights":[2.3585701E1,6.2356575E1,-1.5239747E1,5.156272E1,2.2188451E0,4.628392E0,-1.4641808E0,1.1181649E0,1.6220565E0,2.9014124E-2,2.1336111E-1],"categories":[1],"categories_nodes":[0],"categories_segments":[0],"categories_sizes":[1],"default_left":[1,0,0,0,0,0,0,0,0,0,0],"id":10,"left_children":[1,3,5,7,-1,9,-1,-1,-1,-1,-1],"loss_changes":[9.071486E3,5.8921094E2,2.3710264E3,1.288667E2,0E0,2.2352215E1,0E0,0E0,0E0,0E0,0E0],"parents":[2147483647,0,0,1,1,2,2,3,3,5,5],"right_children":[2,4,6,8,-1,10,-1,-1,-1,-1,-1],"split_conditions":[1E-45,6.9E1,6E1,6.2E1,2.2188451E0,5.411E0,-1.4641808E0,1.1181649E0,1.6220565E0,2.9014124E-2,2.1336111E-1],"split_indices":[8,1,1,1,0,2,0,0,0,0,0],"split_type":[1,0,0,0,0,0,0,0,0,0,0],"sum_hessian":[6E0,3E0,3E0,2E0,1E0,2E0,1E0,1E0,1E0,1E0,1E0],"tree_param":{"num_deleted":"0","num_feature":"24","num_nodes":"11","size_leaf_vector":"1"}},{"base_weights":[-1.1595846E1,6.071084E1,-6.588456E1,5.0201656E1,2.1601913E0,-4.06467E1,-3.747956E0,1.0886072E0,1.5791785E0,2.0772064E-1,-6.481298E1,-2.0199244E0,-1.4254767E0],"categories":[1],"categories_nodes":[0],"categories_segments":[0],"categories_sizes":[1],"default_left":[1,0,0,0,0,0,0,0,0,0,0,0,0],"id":11,"left_children":[1,3,5,7,-1,9,-1,-1,-1,-1,11,-1,-1],"loss_changes":[2.7584273E4,5.579072E2,7.396502E3,1.2174707E2,0E0,3.5398286E3,0E0,0E0,0E0,0E0,1.7478711E2,0E0,0E0],"parents":[2147483647,0,0,1,1,2,2,3,3,5,5,10,10],"right_children":[2,4,6,8,-1,10,-1,-1,-1,-1,12,-1,-1],"split_conditions":[1E-45,6.9E1,3.9E1,6.2E1,2.1601913E0,6E1,-3.747956E0,1.0886072E0,1.5791785E0,2.0772064E-1,7.1E1,-2.0199244E0,-1.4254767E0],"split_indices":[8,1,21,1,0,1,0,0,0,0,1,0,0],"split_type":[1,0,0,0,0,0,0,0,0,0,0,0,0],"sum_hessian":[7E0,3E0,4E0,2E0,1E0,3E0,1E0,1E0,1E0,1E0,2E0,1E0,1E0],"tree_param":{"num_deleted":"0","num_feature":"24","num_nodes":"13","size_leaf_vector":"1"}},{"base_weights":[1.0219547E1,4.700503E1,-6.310168E1,7.124456E1,2.238069E1,-1.96653E0,-1.3877953E0,2.250255E0,1.5374346E0,1.2732263E-1,1.0598304E0],"categories":[0,1,4],"categories_nodes":[1],"categories_segments":[0],"categories_sizes":[3],"default_left":[0,1,0,0,0,0,0,0,0,0,0],"id":12,"left_children":[1,3,5,7,9,-1,-1,-1,-1,-1,-1],"loss_changes":[1.6255886E4,2.3602744E3,1.6517188E2,2.705879E2,6.0079926E2,0E0,0E0,0E0,0E0,0E0,0E0],"parents":[2147483647,0,0,1,1,2,2,3,3,4,4],"right_children":[2,4,6,8,10,-1,-1,-1,-1,-1,-1],"split_conditions":[6.9E1,1E-45,7.1E1,5.7E1,6E1,-1.96653E0,-1.3877953E0,2.250255E0,1.5374346E0,1.2732263E-1,1.0598304E0],"split_indices":[1,8,1,1,1,0,0,0,0,0,0],"split_type":[0,1,0,0,0,0,0,0,0,0,0],"sum_hessian":[6E0,4E0,2E0,2E0,2E0,1E0,1E0,1E0,1E0,1E0,1E0],"tree_param":{"num_deleted":"0","num_feature":"24","num_nodes":"11","size_leaf_vector":"1"}},{"base_weights":[1.309588E0,-6.2994038E1,5.2812935E1,-3.850131E1,-3.6121953E0,7.32571E1,2.1791044E1,-6.143558E1,1.9886461E-1,1.4967943E0,2.1815686E0,1.2395705E-1,1.031815E0,-1.3511096E0,-1.9145458E0],"categories":[0,1,4],"categories_nodes":[2],"categories_segments":[0],"categories_sizes":[3],"default_left":[0,0,1,0,0,0,0,0,0,0,0,0,0,0,0],"id":13,"left_children":[1,3,5,7,-1,9,11,13,-1,-1,-1,-1,-1,-1,-1],"loss_changes":[2.9893477E4,6.9686875E3,3.1440889E3,3.187955E3,0E0,3.4766602E2,5.692841E2,1.5606982E2,0E0,0E0,0E0,0E0,0E0,0E0,0E0],"parents":[2147483647,0,0,1,1,2,2,3,3,5,5,6,6,7,7],"right_children":[2,4,6,8,-1,10,12,14,-1,-1,-1,-1,-1,-1,-1],"split_conditions":[4E1,3.087E2,1E-45,3.056E2,-3.6121953E0,3.059E2,3.084E2,3.05E2,1.9886461E-1,1.4967943E0,2.1815686E0,1.2395705E-1,1.031815E0,-1.3511096E0,-1.9145458E0],"split_indices":[21,0,8,0,0,0,0,0,0,0,0,0,0,0,0],"split_type":[0,0,1,0,0,0,0,0,0,0,0,0,0,0,0],"sum_hessian":[9E0,4E0,5E0,3E0,1E0,3E0,2E0,2E0,1E0,1E0,2E0,1E0,1E0,1E0,1E0],"tree_param":{"num_deleted":"0","num_feature":"24","num_nodes":"15","size_leaf_vector":"1"}},{"base_weights":[-1.1650506E1,-9.086902E1,4.1280308E1,-1.3153933E0,-3.5167105E0,2.0821052E0,2.2587292E1,1.936081E-1,1.0045403E0],"categories":[],"categories_nodes":[],"categories_segments":[],"categories_sizes":[],"default_left":[0,0,0,0,0,0,0,0,0],"id":14,"left_children":[1,3,5,-1,-1,-1,7,-1,-1],"loss_changes":[2.1078604E4,3.2857812E3,2.0148711E3,0E0,0E0,0E0,4.509392E2,0E0,0E0],"parents":[2147483647,0,0,1,1,2,2,6,6],"right_children":[2,4,6,-1,-1,-1,8,-1,-1],"split_conditions":[1.2E1,3.05E2,3.067E2,-1.3153933E0,-3.5167105E0,2.0821052E0,3.087E2,1.936081E-1,1.0045403E0],"split_indices":[5,0,0,0,0,0,0,0,0],"split_type":[0,0,0,0,0,0,0,0,0],"sum_hessian":[5E0,2E0,3E0,1E0,1E0,1E0,2E0,1E0,1E0],"tree_param":{"num_deleted":"0","num_feature":"24","num_nodes":"9","size_leaf_vector":"1"}},{"base_weights":[7.9944216E-2,3.5670074E1,-8.846894E1,5.7873087E0,5.542884E1,-1.2806227E0,-3.4237487E0,1.15562454E-1,1.8849035E-1,4.4797512E1,2.027067E0,1.4021902E0,9.7798675E-1],"categories":[],"categories_nodes":[],"categories_segments":[],"categories_sizes":[],"default_left":[0,0,0,0,0,0,0,0,0,0,0,0,0],"id":15,"left_children":[1,3,5,7,9,-1,-1,-1,-1,11,-1,-1,-1],"loss_changes":[2.2136295E4,2.9466782E3,3.1136611E3,1.6066666E0,5.8555273E2,0E0,0E0,0E0,0E0,8.726416E1,0E0,0E0,0E0],"parents":[2147483647,0,0,1,1,2,2,3,3,4,4,9,9],"right_children":[2,4,6,8,10,-1,-1,-1,-1,12,-1,-1,-1],"split_conditions":[7.5E1,6E1,3.05E2,3.084E2,6.9E1,-1.2806227E0,-3.4237487E0,1.15562454E-1,1.8849035E-1,3.059E2,2.027067E0,1.4021902E0,9.7798675E-1],"split_indices":[1,1,0,0,1,0,0,0,0,0,0,0,0],"split_type":[0,0,0,0,0,0,0,0,0,0,0,0,0],"sum_hessian":[7E0,5E0,2E0,2E0,3E0,1E0,1E0,1E0,1E0,2E0,1E0,1E0,1E0],"tree_param":{"num_deleted":"0","num_feature":"24","num_nodes":"13","size_leaf_vector":"1"}},{"base_weights":[7.418535E0,-6.056509E1,3.473034E1,-1.2467701E0,-1.9725578E0,5.3966274E1,5.636305E0,1.9734837E0,4.3615314E1,1.1250826E-1,1.8350813E-1,1.3651253E0,9.52135E-1],"categories":[],"categories_nodes":[],"categories_segments":[],"categories_sizes":[],"default_left":[0,0,0,0,0,0,0,0,0,0,0,0,0],"id":16,"left_children":[1,3,5,-1,-1,7,9,-1,11,-1,-1,-1,-1],"loss_changes":[1.3046119E4,3.0553467E2,2.792753E3,0E0,0E0,5.544971E2,1.4783325E0,0E0,8.236719E1,0E0,0E0,0E0,0E0],"parents":[2147483647,0,0,1,1,2,2,5,5,6,6,8,8],"right_children":[2,4,6,-1,-1,8,10,-1,12,-1,-1,-1,-1],"split_conditions":[3.056E2,3.05E2,5.381E0,-1.2467701E0,-1.9725578E0,4.42E0,3.084E2,1.9734837E0,3.059E2,1.1250826E-1,1.8350813E-1,1.3651253E0,9.52135E-1],"split_indices":[0,0,2,0,0,2,0,0,0,0,0,0,0],"split_type":[0,0,0,0,0,0,0,0,0,0,0,0,0],"sum_hessian":[7E0,2E0,5E0,1E0,1E0,3E0,2E0,1E0,2E0,1E0,1E0,1E0,1E0],"tree_param":{"num_deleted":"0","num_feature":"24","num_nodes":"13","size_leaf_vector":"1"}},{"base_weights":[-1.2001073E1,-8.194844E1,4.0519993E1,-5.8966076E1,-3.3854125E0,1.0953475E-1,5.254233E1,-1.9204153E0,-1.213813E0,4.246434E1,1.9213158E0,9.269658E-1,1.3290397E0],"categories":[1],"categories_nodes":[1],"categories_segments":[0],"categories_sizes":[1],"default_left":[0,1,0,0,0,0,0,0,0,0,0,0,0],"id":17,"left_children":[1,3,5,7,-1,-1,9,-1,-1,11,-1,-1,-1],"loss_changes":[2.5815215E4,2.9507324E3,1.7464395E3,2.8913037E2,0E0,0E0,5.250742E2,0E0,0E0,7.7735596E1,0E0,0E0,0E0],"parents":[2147483647,0,0,1,1,2,2,3,3,6,6,9,9],"right_children":[2,4,6,8,-1,-1,10,-1,-1,12,-1,-1,-1],"split_conditions":[9.6E1,1E-45,6E1,7.1E1,-3.3854125E0,1.0953475E-1,6.9E1,-1.9204153E0,-1.213813E0,6.2E1,1.9213158E0,9.269658E-1,1.3290397E0],"split_indices":[22,13,1,1,0,0,1,0,0,1,0,0,0],"split_type":[0,1,0,0,0,0,0,0,0,0,0,0,0],"sum_hessian":[7E0,3E0,4E0,2E0,1E0,1E0,3E0,1E0,1E0,2E0,1E0,1E0,1E0],"tree_param":{"num_deleted":"0","num_feature":"24","num_nodes":"13","size_leaf_vector":"1"}},{"base_weights":[1.0530441E0,-8.4208824E1,3.5320553E1,-1.1817269E0,-3.2959213E0,1.6134056E1,6.3729313E1,9.024629E-1,7.1163883E0,1.2939076E0,2.0938203E0,1.0663866E-1,2.681478E-1],"categories":[1],"categories_nodes":[2],"categories_segments":[0],"categories_sizes":[1],"default_left":[0,0,1,0,0,0,0,0,0,0,0,0,0],"id":18,"left_children":[1,3,5,-1,-1,7,9,-1,11,-1,-1,-1,-1],"loss_changes":[2.0523127E4,3.0376729E3,2.7069678E3,0E0,0E0,4.678105E2,3.792578E2,0E0,1.5650085E1,0E0,0E0,0E0,0E0],"parents":[2147483647,0,0,1,1,2,2,5,5,6,6,8,8],"right_children":[2,4,6,-1,-1,8,10,-1,12,-1,-1,-1,-1],"split_conditions":[4.308E0,4.207E0,1E-45,-1.1817269E0,-3.2959213E0,5.381E0,5.145E0,9.024629E-1,5.411E0,1.2939076E0,2.0938203E0,1.0663866E-1,2.681478E-1],"split_indices":[2,2,12,0,0,2,2,0,2,0,0,0,0],"split_type":[0,0,1,0,0,0,0,0,0,0,0,0,0],"sum_hessian":[7E0,2E0,5E0,1E0,1E0,3E0,2E0,1E0,2E0,1E0,1E0,1E0,1E0],"tree_param":{"num_deleted":"0","num_feature":"24","num_nodes":"13","size_leaf_vector":"1"}},{"base_weights":[1.6839112E-1,5.688936E1,-5.6515923E1,1.9573959E0,4.0252888E1,-9.594605E1,-1.6638128E1,1.259705E0,8.78607E-1,-3.208797E0,-1.8935069E0,-1.1504897E0,2.6106006E-1],"categories":[1],"categories_nodes":[0],"categories_segments":[0],"categories_sizes":[1],"default_left":[1,0,0,0,0,0,0,0,0,0,0,0,0],"id":19,"left_children":[1,3,5,-1,7,9,11,-1,-1,-1,-1,-1,-1],"loss_changes":[2.5807125E4,1.0246553E3,6.272414E3,0E0,6.9208984E1,1.071502E3,1.4082795E3,0E0,0E0,0E0,0E0,0E0,0E0],"parents":[2147483647,0,0,1,1,2,2,4,4,5,5,6,6],"right_children":[2,4,6,-1,8,10,12,-1,-1,-1,-1,-1,-1],"split_conditions":[1E-45,2.6E1,1.4E1,1.9573959E0,5.145E0,4.308E0,4.207E0,1.259705E0,8.78607E-1,-3.208797E0,-1.8935069E0,-1.1504897E0,2.6106006E-1],"split_indices":[8,15,4,0,2,2,2,0,0,0,0,0,0],"split_type":[1,0,0,0,0,0,0,0,0,0,0,0,0],"sum_hessian":[8E0,4E0,4E0,2E0,2E0,2E0,2E0,1E0,1E0,1E0,1E0,1E0,1E0],"tree_param":{"num_deleted":"0","num_feature":"24","num_nodes":"13","size_leaf_vector":"1"}},{"base_weights":[9.8947906E-1,-7.981957E1,3.3468937E1,-1.1200768E0,-3.1239748E0,6.0448734E1,1.52453575E1,1.2264056E0,1.98673E0,8.5538185E-1,6.670926E0,9.691947E-2,2.541595E-1],"categories":[0,1,4],"categories_nodes":[2],"categories_segments":[0],"categories_sizes":[3],"default_left":[0,0,1,0,0,0,0,0,0,0,0,0,0],"id":20,"left_children":[1,3,5,-1,-1,7,9,-1,-1,-1,11,-1,-1],"loss_changes":[1.8435979E4,2.727749E3,2.4413179E3,0E0,0E0,3.4199902E2,4.225929E2,0E0,0E0,0E0,1.49025345E1,0E0,0E0],"parents":[2147483647,0,0,1,1,2,2,5,5,6,6,10,10],"right_children":[2,4,6,-1,-1,8,10,-1,-1,-1,12,-1,-1],"split_conditions":[4.308E0,4.207E0,1E-45,-1.1200768E0,-3.1239748E0,5.145E0,5.381E0,1.2264056E0,1.98673E0,8.5538185E-1,5.411E0,9.691947E-2,2.541595E-1],"split_indices":[2,2,8,0,0,2,2,0,0,0,2,0,0],"split_type":[0,0,1,0,0,0,0,0,0,0,0,0,0],"sum_hessian":[7E0,2E0,5E0,1E0,1E0,2E0,3E0,1E0,1E0,1E0,2E0,1E0,1E0],"tree_param":{"num_deleted":"0","num_feature":"24","num_nodes":"13","size_leaf_vector":"1"}},{"base_weights":[-2.4364298E1,2.6728165E1,-7.539875E1,9.4357364E-2,3.8156784E1,-5.5627235E1,-3.0413957E0,8.327699E-1,1.1939874E0,-1.866066E0,-1.0904691E0],"categories":[],"categories_nodes":[],"categories_segments":[],"categories_sizes":[],"default_left":[0,0,0,0,0,0,0,0,0,0,0],"id":21,"left_children":[1,3,5,-1,7,9,-1,-1,-1,-1,-1],"loss_changes":[1.5713628E4,7.911362E2,2.1633496E3,0E0,6.1582275E1,3.673916E2,0E0,0E0,0E0,0E0,0E0],"parents":[2147483647,0,0,1,1,2,2,4,4,5,5],"right_children":[2,4,6,-1,8,10,-1,-1,-1,-1,-1],"split_conditions":[6.9E1,6E1,2.55E1,9.4357364E-2,6.2E1,7.1E1,-3.0413957E0,8.327699E-1,1.1939874E0,-1.866066E0,-1.0904691E0],"split_indices":[1,1,3,0,1,1,0,0,0,0,0],"split_type":[0,0,0,0,0,0,0,0,0,0,0],"sum_hessian":[6E0,3E0,3E0,1E0,2E0,2E0,1E0,1E0,1E0,1E0,1E0],"tree_param":{"num_deleted":"0","num_feature":"24","num_nodes":"11","size_leaf_vector":"1"}},{"base_weights":[-5.6784253E0,5.7017784E1,-5.277093E1,1.8758153E0,8.1075644E-1,-8.9847466E1,-1.5271488E1,-1.8167374E0,-2.9609993E0,-1.0616438E0,2.4494693E-1],"categories":[1],"categories_nodes":[0],"categories_segments":[0],"categories_sizes":[1],"default_left":[1,0,0,0,0,0,0,0,0,0,0],"id":22,"left_children":[1,3,5,-1,-1,7,9,-1,-1,-1,-1],"loss_changes":[2.0746332E4,1.00567285E3,5.5459404E3,0E0,0E0,7.912422E2,1.2069897E3,0E0,0E0,0E0,0E0],"parents":[2147483647,0,0,1,1,2,2,5,5,6,6],"right_children":[2,4,6,-1,-1,8,10,-1,-1,-1,-1],"split_conditions":[1E-45,1.2E1,1.4E1,1.8758153E0,8.1075644E-1,3.056E2,3.05E2,-1.8167374E0,-2.9609993E0,-1.0616438E0,2.4494693E-1],"split_indices":[8,6,4,0,0,0,0,0,0,0,0],"split_type":[1,0,0,0,0,0,0,0,0,0,0],"sum_hessian":[7E0,3E0,4E0,2E0,1E0,2E0,2E0,1E0,1E0,1E0,1E0],"tree_param":{"num_deleted":"0","num_feature":"24","num_nodes":"11","size_leaf_vector":"1"}},{"base_weights":[6.8197374E0,-5.2729065E1,3.670745E1,-1.0335802E0,-1.7687143E0,5.3711723E1,1.9386417E1,1.1128408E0,1.7417508E0,2.384723E-1,7.893255E-1],"categories":[],"categories_nodes":[],"categories_segments":[],"categories_sizes":[],"default_left":[0,0,0,0,0,0,0,0,0,0,0],"id":23,"left_children":[1,3,5,-1,-1,7,9,-1,-1,-1,-1],"loss_changes":[1.0725703E4,3.2923633E2,1.1572734E3,0E0,0E0,2.2524512E2,2.0356537E2,0E0,0E0,0E0,0E0],"parents":[2147483647,0,0,1,1,2,2,5,5,6,6],"right_children":[2,4,6,-1,-1,8,10,-1,-1,-1,-1],"split_conditions":[3.056E2,3.05E2,3.067E2,-1.0335802E0,-1.7687143E0,3.059E2,3.087E2,1.1128408E0,1.7417508E0,2.384723E-1,7.893255E-1],"split_indices":[0,0,0,0,0,0,0,0,0,0,0],"split_type":[0,0,0,0,0,0,0,0,0,0,0],"sum_hessian":[6E0,2E0,4E0,1E0,1E0,2E0,2E0,1E0,1E0,1E0,1E0],"tree_param":{"num_deleted":"0","num_feature":"24","num_nodes":"11","size_leaf_vector":"1"}},{"base_weights":[6.2160634E-2,-5.09348E1,5.109613E1,-1.4470905E1,-8.6987915E1,3.4870934E1,1.7922281E0,-1.0062586E0,2.3216869E-1,-1.7219592E0,-2.9035923E0,1.0834234E0,7.6846087E-1],"categories":[],"categories_nodes":[],"categories_segments":[],"categories_sizes":[],"default_left":[0,0,0,0,0,0,0,0,0,0,0,0,0],"id":24,"left_children":[1,3,5,7,9,11,-1,-1,-1,-1,-1,-1,-1],"loss_changes":[2.0889895E4,5.2441387E3,9.8346875E2,1.0845656E3,8.6015625E2,4.3642822E1,0E0,0E0,0E0,0E0,0E0,0E0,0E0],"parents":[2147483647,0,0,1,1,2,2,3,3,4,4,5,5],"right_children":[2,4,6,8,10,12,-1,-1,-1,-1,-1,-1,-1],"split_conditions":[9.6E1,2.1E1,1.7E1,3.05E2,3.056E2,3.059E2,1.7922281E0,-1.0062586E0,2.3216869E-1,-1.7219592E0,-2.9035923E0,1.0834234E0,7.6846087E-1],"split_indices":[22,3,3,0,0,0,0,0,0,0,0,0,0],"split_type":[0,0,0,0,0,0,0,0,0,0,0,0,0],"sum_hessian":[8E0,4E0,4E0,2E0,2E0,2E0,2E0,1E0,1E0,1E0,1E0,1E0,1E0],"tree_param":{"num_deleted":"0","num_feature":"24","num_nodes":"13","size_leaf_vector":"1"}},{"base_weights":[-7.5370264E0,-8.469042E1,1.8286417E1,-1.6764399E0,-2.826839E0,3.633479E1,-1.7737717E1,2.5571268E1,1.8138913E0,-9.7965825E-1,3.1708524E-2,3.395112E1,2.2603124E-1,1.0547836E0,7.4814796E-1],"categories":[0],"categories_nodes":[2],"categories_segments":[0],"categories_sizes":[1],"default_left":[0,0,1,0,0,0,0,0,0,0,0,0,0,0,0],"id":25,"left_children":[1,3,5,-1,-1,7,9,11,-1,-1,-1,13,-1,-1,-1],"loss_changes":[1.5995962E4,8.1461426E2,3.9210645E3,0E0,0E0,1.3187085E3,7.2341327E2,4.2247888E2,0E0,0E0,0E0,4.1097412E1,0E0,0E0,0E0],"parents":[2147483647,0,0,1,1,2,2,5,5,6,6,7,7,11,11],"right_children":[2,4,6,-1,-1,8,10,12,-1,-1,-1,14,-1,-1,-1],"split_conditions":[9E0,3.056E2,1E-45,-1.6764399E0,-2.826839E0,1.8E1,3.05E2,1.7E1,1.8138913E0,-9.7965825E-1,3.1708524E-2,3.059E2,2.2603124E-1,1.0547836E0,7.4814796E-1],"split_indices":[6,0,10,0,0,3,0,3,0,0,0,0,0,0,0],"split_type":[0,0,1,0,0,0,0,0,0,0,0,0,0,0,0],"sum_hessian":[8E0,2E0,6E0,1E0,1E0,4E0,2E0,3E0,1E0,1E0,1E0,2E0,1E0,1E0,1E0],"tree_param":{"num_deleted":"0","num_feature":"24","num_nodes":"15","size_leaf_vector":"1"}},{"base_weights":[1.7804131E-1,-8.245366E1,2.3920025E1,-1.6321242E0,-2.7521138E0,4.8388355E1,-8.724452E0,1.696273E0,3.3055588E1,-9.5376134E-1,4.7890663E0,1.0269006E0,7.283707E-1,3.086955E-2,2.2005679E-1],"categories":[1],"categories_nodes":[2],"categories_segments":[0],"categories_sizes":[1],"default_left":[0,0,1,0,0,0,0,0,0,0,0,0,0,0,0],"id":26,"left_children":[1,3,5,-1,-1,7,9,-1,11,-1,13,-1,-1,-1,-1],"loss_changes":[1.7700164E4,7.714668E2,5.613458E3,0E0,0E0,8.770156E2,1.1015337E3,0E0,3.8692383E1,0E0,2.3561264E1,0E0,0E0,0E0,0E0],"parents":[2147483647,0,0,1,1,2,2,5,5,6,6,8,8,10,10],"right_children":[2,4,6,-1,-1,8,10,-1,12,-1,14,-1,-1,-1,-1],"split_conditions":[1.4E1,1.2E1,1E-45,-1.6321242E0,-2.7521138E0,2.6E1,1E1,1.696273E0,1E1,-9.5376134E-1,1.9E1,1.0269006E0,7.283707E-1,3.086955E-2,2.2005679E-1],"split_indices":[4,4,8,0,0,15,5,0,6,0,4,0,0,0,0],"split_type":[0,0,1,0,0,0,0,0,0,0,0,0,0,0,0],"sum_hessian":[9E0,2E0,7E0,1E0,1E0,4E0,3E0,2E0,2E0,1E0,2E0,1E0,1E0,1E0,1E0],"tree_param":{"num_deleted":"0","num_feature":"24","num_nodes":"15","size_leaf_vector":"1"}},{"base_weights":[3.398431E0,3.2038685E1,-6.7866585E1,1.2068488E1,1.6511366E0,-2.6793633E0,-9.285502E-1,4.664438E0,7.091163E-1,3.0053161E-2,2.1424043E-1],"categories":[],"categories_nodes":[],"categories_segments":[],"categories_sizes":[],"default_left":[0,0,0,0,0,0,0,0,0,0,0],"id":27,"left_children":[1,3,5,7,-1,-1,-1,9,-1,-1,-1],"loss_changes":[1.4338071E4,2.9428887E3,2.0835977E3,3.1509256E2,0E0,0E0,0E0,2.2295525E1,0E0,0E0,0E0],"parents":[2147483647,0,0,1,1,2,2,3,3,7,7],"right_children":[2,4,6,8,-1,-1,-1,10,-1,-1,-1],"split_conditions":[7.5E1,7.6E1,7.8E1,6E1,1.6511366E0,-2.6793633E0,-9.285502E-1,5.411E0,7.091163E-1,3.0053161E-2,2.1424043E-1],"split_indices":[1,18,1,1,0,0,0,2,0,0,0],"split_type":[0,0,0,0,0,0,0,0,0,0,0],"sum_hessian":[7E0,5E0,2E0,3E0,2E0,1E0,1E0,2E0,1E0,1E0,1E0],"tree_param":{"num_deleted":"0","num_feature":"24","num_nodes":"11","size_leaf_vector":"1"}},{"base_weights":[2.2710714E1,-8.264132E0,4.5929447E1,-9.0400535E-1,4.543113E0,3.1479311E1,1.6072022E0,2.9259363E-2,2.0857735E-1,9.8101026E-1,6.903716E-1],"categories":[],"categories_nodes":[],"categories_segments":[],"categories_sizes":[],"default_left":[0,0,0,0,0,0,0,0,0,0,0],"id":28,"left_children":[1,3,5,-1,7,9,-1,-1,-1,-1,-1],"loss_changes":[5.0546196E3,9.8993054E2,7.773076E2,0E0,2.1096401E1,3.7221436E1,0E0,0E0,0E0,0E0,0E0],"parents":[2147483647,0,0,1,1,2,2,4,4,5,5],"right_children":[2,4,6,-1,8,10,-1,-1,-1,-1,-1],"split_conditions":[8.9E1,3.05E2,1.7E1,-9.0400535E-1,3.084E2,3.059E2,1.6072022E0,2.9259363E-2,2.0857735E-1,9.8101026E-1,6.903716E-1],"split_indices":[17,0,3,0,0,0,0,0,0,0,0],"split_type":[0,0,0,0,0,0,0,0,0,0,0],"sum_hessian":[7E0,3E0,4E0,1E0,2E0,2E0,2E0,1E0,1E0,1E0,1E0],"tree_param":{"num_deleted":"0","num_feature":"24","num_nodes":"11","size_leaf_vector":"1"}},{"base_weights":[6.6715155E0,3.6038128E1,-6.642382E1,2.088506E1,1.564437E0,-8.80109E-1,-2.6510208E0,2.8486537E-2,3.0649141E1,9.5507795E-1,6.721223E-1],"categories":[],"categories_nodes":[],"categories_segments":[],"categories_sizes":[],"default_left":[0,0,0,0,0,0,0,0,0,0,0],"id":29,"left_children":[1,3,5,7,-1,-1,-1,-1,9,-1,-1],"loss_changes":[1.5081805E4,1.6710967E3,2.1365703E3,5.780233E2,0E0,0E0,0E0,0E0,3.503772E1,0E0,0E0],"parents":[2147483647,0,0,1,1,2,2,3,3,8,8],"right_children":[2,4,6,8,-1,-1,-1,-1,10,-1,-1],"split_conditions":[7.5E1,6.4E1,3.05E2,6E1,1.564437E0,-8.80109E-1,-2.6510208E0,2.8486537E-2,3.059E2,9.5507795E-1,6.721223E-1],"split_indices":[1,21,0,1,0,0,0,0,0,0,0],"split_type":[0,0,0,0,0,0,0,0,0,0,0],"sum_hessian":[7E0,5E0,2E0,3E0,2E0,1E0,1E0,1E0,2E0,1E0,1E0],"tree_param":{"num_deleted":"0","num_feature":"24","num_nodes":"11","size_leaf_vector":"1"}},{"base_weights":[1.11278715E1,-4.687212E1,3.054697E1,-1.633744E0,-8.568436E-1,1.7212769E1,1.5228087E0,2.9840918E1,4.3966875E0,9.298312E-1,6.543554E-1,2.7733073E-2,2.0231086E-1],"categories":[],"categories_nodes":[],"categories_segments":[],"categories_sizes":[],"default_left":[0,0,0,0,0,0,0,0,0,0,0,0,0],"id":30,"left_children":[1,3,5,-1,-1,7,-1,9,11,-1,-1,-1,-1],"loss_changes":[9.042057E3,3.832793E2,2.085062E3,0E0,0E0,6.426681E2,0E0,3.2974E1,1.9972553E1,0E0,0E0,0E0,0E0],"parents":[2147483647,0,0,1,1,2,2,5,5,7,7,8,8],"right_children":[2,4,6,-1,-1,8,-1,10,12,-1,-1,-1,-1],"split_conditions":[8.6E1,1.2E1,6.4E1,-1.633744E0,-8.568436E-1,1.3E1,1.5228087E0,1E1,1.9E1,9.298312E-1,6.543554E-1,2.7733073E-2,2.0231086E-1],"split_indices":[17,4,21,0,0,5,0,6,4,0,0,0,0],"split_type":[0,0,0,0,0,0,0,0,0,0,0,0,0],"sum_hessian":[8E0,2E0,6E0,1E0,1E0,4E0,2E0,2E0,2E0,1E0,1E0,1E0,1E0],"tree_param":{"num_deleted":"0","num_feature":"24","num_nodes":"13","size_leaf_vector":"1"}},{"base_weights":[-1.2886906E0,-7.891819E1,2.0977507E1,-1.5905579E0,-2.6055224E0,3.543722E1,-1.5092897E1,1.482288E0,2.1934422E1,2.7000586E-2,-8.3419293E-1,1.9696239E-1,2.905407E1,6.3705796E-1,9.052524E-1],"categories":[0],"categories_nodes":[2],"categories_segments":[0],"categories_sizes":[1],"default_left":[0,0,1,0,0,0,0,0,0,0,0,0,0,0,0],"id":31,"left_children":[1,3,5,-1,-1,7,9,-1,11,-1,-1,-1,13,-1,-1],"loss_changes":[1.56103E4,6.217197E2,3.6680686E3,0E0,0E0,1.3194966E3,5.252001E2,0E0,3.0454028E2,0E0,0E0,0E0,3.1024658E1,0E0,0E0],"parents":[2147483647,0,0,1,1,2,2,5,5,6,6,8,8,12,12],"right_children":[2,4,6,-1,-1,8,10,-1,12,-1,-1,-1,14,-1,-1],"split_conditions":[9E0,7.1E1,1E-45,-1.5905579E0,-2.6055224E0,2.6E1,6E1,1.482288E0,6E1,2.7000586E-2,-8.3419293E-1,1.9696239E-1,6.2E1,6.3705796E-1,9.052524E-1],"split_indices":[6,1,10,0,0,15,1,0,1,0,0,0,1,0,0],"split_type":[0,0,1,0,0,0,0,0,0,0,0,0,0,0,0],"sum_hessian":[9E0,2E0,7E0,1E0,1E0,5E0,2E0,2E0,3E0,1E0,1E0,1E0,2E0,1E0,1E0],"tree_param":{"num_deleted":"0","num_feature":"24","num_nodes":"15","size_leaf_vector":"1"}},{"base_weights":[1.9427366E0,-6.2997665E1,2.804694E1,-8.121424E-1,-2.5366473E0,1.4428457E0,1.0622873E1,6.202172E-1,4.171198E0,2.6287455E-2,1.917559E-1],"categories":[0,1,4],"categories_nodes":[2],"categories_segments":[0],"categories_sizes":[3],"default_left":[0,0,1,0,0,0,0,0,0,0,0],"id":32,"left_children":[1,3,5,-1,-1,-1,7,-1,9,-1,-1],"loss_changes":[1.1907364E4,2.0289009E3,2.2381008E3,0E0,0E0,0E0,2.3826239E2,0E0,1.787762E1,0E0,0E0],"parents":[2147483647,0,0,1,1,2,2,6,6,8,8],"right_children":[2,4,6,-1,-1,-1,8,-1,10,-1,-1],"split_conditions":[4.308E0,4.207E0,1E-45,-8.121424E-1,-2.5366473E0,1.4428457E0,5.381E0,6.202172E-1,5.411E0,2.6287455E-2,1.917559E-1],"split_indices":[2,2,8,0,0,0,2,0,2,0,0],"split_type":[0,0,1,0,0,0,0,0,0,0,0],"sum_hessian":[7E0,2E0,5E0,1E0,1E0,2E0,3E0,1E0,2E0,1E0,1E0],"tree_param":{"num_deleted":"0","num_feature":"24","num_nodes":"11","size_leaf_vector":"1"}},{"base_weights":[6.147588E0,-6.133434E1,4.0017242E1,-7.906743E-1,-2.469593E0,1.4044527E0,2.7263248E1,8.431812E-1,6.038217E-1],"categories":[],"categories_nodes":[],"categories_segments":[],"categories_sizes":[],"default_left":[0,0,0,0,0,0,0,0,0],"id":33,"left_children":[1,3,5,-1,-1,-1,7,-1,-1],"loss_changes":[1.3773418E4,1.9225703E3,6.045674E2,0E0,0E0,0E0,2.2554321E1,0E0,0E0],"parents":[2147483647,0,0,1,1,2,2,6,6],"right_children":[2,4,6,-1,-1,-1,8,-1,-1],"split_conditions":[9E1,3.05E2,2.6E1,-7.906743E-1,-2.469593E0,1.4044527E0,3.059E2,8.431812E-1,6.038217E-1],"split_indices":[17,0,15,0,0,0,0,0,0],"split_type":[0,0,0,0,0,0,0,0,0],"sum_hessian":[6E0,2E0,4E0,1E0,1E0,2E0,2E0,1E0,1E0],"tree_param":{"num_deleted":"0","num_feature":"24","num_nodes":"9","size_leaf_vector":"1"}},{"base_weights":[-6.946117E0,2.419436E1,-5.8774143E1,1.1783416E1,4.2535706E1,-4.2716022E1,-2.404311E0,6.5161633E0,5.8786017E-1,1.4389114E0,8.208919E-1,-1.4996259E0,-7.6977414E-1,9.0874E-2,2.5196847E-1],"categories":[1],"categories_nodes":[1],"categories_segments":[0],"categories_sizes":[1],"default_left":[0,1,0,0,0,0,0,0,0,0,0,0,0,0,0],"id":34,"left_children":[1,3,5,7,9,11,-1,13,-1,-1,-1,-1,-1,-1,-1],"loss_changes":[1.2957154E4,1.1264146E3,1.4285664E3,1.5515573E2,2.3318896E2,3.393745E2,0E0,1.5841881E1,0E0,0E0,0E0,0E0,0E0,0E0,0E0],"parents":[2147483647,0,0,1,1,2,2,3,3,4,4,5,5,7,7],"right_children":[2,4,6,8,10,12,-1,14,-1,-1,-1,-1,-1,-1,-1],"split_conditions":[6.9E1,1E-45,2.55E1,6E1,5.7E1,7.1E1,-2.404311E0,5.411E0,5.8786017E-1,1.4389114E0,8.208919E-1,-1.4996259E0,-7.6977414E-1,9.0874E-2,2.5196847E-1],"split_indices":[1,12,3,1,1,1,0,2,0,0,0,0,0,0,0],"split_type":[0,1,0,0,0,0,0,0,0,0,0,0,0,0,0],"sum_hessian":[8E0,5E0,3E0,3E0,2E0,2E0,1E0,2E0,1E0,1E0,1E0,1E0,1E0,1E0,1E0],"tree_param":{"num_deleted":"0","num_feature":"24","num_nodes":"15","size_leaf_vector":"1"}},{"base_weights":[-5.645312E-1,-7.148978E1,1.9775707E1,-1.4599843E0,-2.3407555E0,3.8439026E1,-5.1190023E0,2.5844797E1,1.3581786E0,6.345879E0,-7.4942577E-1,7.991931E-1,5.7231975E-1,2.4530831E-1,8.847163E-2],"categories":[1],"categories_nodes":[2],"categories_segments":[0],"categories_sizes":[1],"default_left":[0,0,1,0,0,0,0,0,0,0,0,0,0,0,0],"id":35,"left_children":[1,3,5,-1,-1,7,9,11,-1,13,-1,-1,-1,-1,-1],"loss_changes":[1.3029454E4,4.590498E2,3.2661013E3,0E0,0E0,5.911118E2,7.95321E2,1.9860107E1,0E0,1.4965454E1,0E0,0E0,0E0,0E0,0E0],"parents":[2147483647,0,0,1,1,2,2,5,5,6,6,7,7,9,9],"right_children":[2,4,6,-1,-1,8,10,12,-1,14,-1,-1,-1,-1,-1],"split_conditions":[9E0,2.55E1,1E-45,-1.4599843E0,-2.3407555E0,1.7E1,1.2E1,1.5E1,1.3581786E0,1.8E1,-7.4942577E-1,7.991931E-1,5.7231975E-1,2.4530831E-1,8.847163E-2],"split_indices":[6,3,8,0,0,3,6,3,0,3,0,0,0,0,0],"split_type":[0,0,1,0,0,0,0,0,0,0,0,0,0,0,0],"sum_hessian":[9E0,2E0,7E0,1E0,1E0,4E0,3E0,2E0,2E0,2E0,1E0,1E0,1E0,1E0,1E0],"tree_param":{"num_deleted":"0","num_feature":"24","num_nodes":"15","size_leaf_vector":"1"}},{"base_weights":[-9.4006815E0,-5.5713093E1,2.5365961E1,-4.0491413E1,-2.2788796E0,3.8327946E1,1.2162168E1,-7.296147E-1,-1.4213915E0,7.780671E-1,1.2577995E0,8.613218E-2,5.571908E-1],"categories":[],"categories_nodes":[],"categories_segments":[],"categories_sizes":[],"default_left":[0,0,0,0,0,0,0,0,0,0,0,0,0],"id":36,"left_children":[1,3,5,7,-1,9,11,-1,-1,-1,-1,-1,-1],"loss_changes":[1.1315647E4,1.2822959E3,6.73124E2,3.042583E2,0E0,1.317373E2,1.5113959E2,0E0,0E0,0E0,0E0,0E0,0E0],"parents":[2147483647,0,0,1,1,2,2,3,3,5,5,6,6],"right_children":[2,4,6,8,-1,10,12,-1,-1,-1,-1,-1,-1],"split_conditions":[9.6E1,3.056E2,3.067E2,3.05E2,-2.2788796E0,3.059E2,3.084E2,-7.296147E-1,-1.4213915E0,7.780671E-1,1.2577995E0,8.613218E-2,5.571908E-1],"split_indices":[22,0,0,0,0,0,0,0,0,0,0,0,0],"split_type":[0,0,0,0,0,0,0,0,0,0,0,0,0],"sum_hessian":[7E0,3E0,4E0,2E0,1E0,2E0,2E0,1E0,1E0,1E0,1E0,1E0,1E0],"tree_param":{"num_deleted":"0","num_feature":"24","num_nodes":"13","size_leaf_vector":"1"}},{"base_weights":[-8.4730625E0,2.5883192E1,-5.424299E1,1.3502449E0,1.7471933E1,-3.942302E1,-2.2186396E0,8.385566E-2,2.4500347E1,-7.10328E-1,-1.3838183E0,7.574993E-1,5.42462E-1],"categories":[],"categories_nodes":[],"categories_segments":[],"categories_sizes":[],"default_left":[0,0,0,0,0,0,0,0,0,0,0,0,0],"id":37,"left_children":[1,3,5,-1,7,9,-1,-1,11,-1,-1,-1,-1],"loss_changes":[1.105122E4,8.0605566E2,1.2148535E3,0E0,2.985846E2,2.8807397E2,0E0,0E0,1.7460205E1,0E0,0E0,0E0,0E0],"parents":[2147483647,0,0,1,1,2,2,4,4,5,5,8,8],"right_children":[2,4,6,-1,8,10,-1,-1,12,-1,-1,-1,-1],"split_conditions":[6.9E1,5.7E1,3.056E2,1.3502449E0,6E1,3.05E2,-2.2186396E0,8.385566E-2,3.059E2,-7.10328E-1,-1.3838183E0,7.574993E-1,5.42462E-1],"split_indices":[1,1,0,0,1,0,0,0,0,0,0,0,0],"split_type":[0,0,0,0,0,0,0,0,0,0,0,0,0],"sum_hessian":[7E0,4E0,3E0,1E0,3E0,2E0,1E0,1E0,2E0,1E0,1E0,1E0,1E0],"tree_param":{"num_deleted":"0","num_feature":"24","num_nodes":"13","size_leaf_vector":"1"}},{"base_weights":[-1.766745E0,-5.2811756E1,3.652796E1,-3.838288E1,-2.159992E0,1.3094459E0,2.3854649E1,-6.91551E-1,-1.347239E0,5.2812195E-1,7.374752E-1],"categories":[1],"categories_nodes":[1],"categories_segments":[0],"categories_sizes":[1],"default_left":[0,1,0,0,0,0,0,0,0,0,0],"id":38,"left_children":[1,3,5,7,-1,-1,9,-1,-1,-1,-1],"loss_changes":[1.3737382E4,1.1509443E3,6.021592E2,2.7274292E2,0E0,0E0,1.6360962E1,0E0,0E0,0E0,0E0],"parents":[2147483647,0,0,1,1,2,2,3,3,6,6],"right_children":[2,4,6,8,-1,-1,10,-1,-1,-1,-1],"split_conditions":[9E1,1E-45,2.6E1,9E0,-2.159992E0,1.3094459E0,1.3E1,-6.91551E-1,-1.347239E0,5.2812195E-1,7.374752E-1],"split_indices":[17,9,15,7,0,0,7,0,0,0,0],"split_type":[0,1,0,0,0,0,0,0,0,0,0],"sum_hessian":[7E0,3E0,4E0,2E0,1E0,2E0,2E0,1E0,1E0,1E0,1E0],"tree_param":{"num_deleted":"0","num_feature":"24","num_nodes":"11","size_leaf_vector":"1"}},{"base_weights":[-1.0464778E0,-5.22381E1,2.4600441E1,-6.7327106E-1,-2.102894E0,1.2485837E0,1.7039768E1,2.3226019E1,1.17251694E-1,7.179804E-1,5.141611E-1],"categories":[],"categories_nodes":[],"categories_segments":[],"categories_sizes":[],"default_left":[0,0,0,0,0,0,0,0,0,0,0],"id":39,"left_children":[1,3,5,-1,-1,-1,7,9,-1,-1,-1],"loss_changes":[7.916137E3,1.3916929E3,6.4787524E2,0E0,0E0,0E0,2.3056525E2,1.5324219E1,0E0,0E0,0E0],"parents":[2147483647,0,0,1,1,2,2,6,6,7,7],"right_children":[2,4,6,-1,-1,-1,8,10,-1,-1,-1],"split_conditions":[4.308E0,4.207E0,4.42E0,-6.7327106E-1,-2.102894E0,1.2485837E0,5.381E0,5.145E0,1.17251694E-1,7.179804E-1,5.141611E-1],"split_indices":[2,2,2,0,0,0,2,2,0,0,0],"split_type":[0,0,0,0,0,0,0,0,0,0,0],"sum_hessian":[6E0,2E0,4E0,1E0,1E0,1E0,3E0,2E0,1E0,1E0,1E0],"tree_param":{"num_deleted":"0","num_feature":"24","num_nodes":"11","size_leaf_vector":"1"}},{"base_weights":[-2.6604776E0,-2.6926641E1,3.7673885E1,8.811441E0,-5.0735302E1,5.0056964E-1,1.2564311E0,1.14152335E-1,3.5084492E-1,-6.5547353E-1,-6.3544838E1,-1.3306047E0,-2.0473056E0],"categories":[],"categories_nodes":[],"categories_segments":[],"categories_sizes":[],"default_left":[0,0,0,0,0,0,0,0,0,0,0,0,0],"id":40,"left_children":[1,3,5,7,9,-1,-1,-1,-1,-1,11,-1,-1],"loss_changes":[7.8549956E3,4.277909E3,5.067456E2,3.5931183E1,9.7994775E2,0E0,0E0,0E0,0E0,0E0,2.9050732E2,0E0,0E0],"parents":[2147483647,0,0,1,1,2,2,3,3,4,4,10,10],"right_children":[2,4,6,8,10,-1,-1,-1,-1,-1,12,-1,-1],"split_conditions":[9E1,6E1,1.7E1,3.084E2,3.05E2,5.0056964E-1,1.2564311E0,1.14152335E-1,3.5084492E-1,-6.5547353E-1,3.056E2,-1.3306047E0,-2.0473056E0],"split_indices":[17,1,3,0,0,0,0,0,0,0,0,0,0],"split_type":[0,0,0,0,0,0,0,0,0,0,0,0,0],"sum_hessian":[8E0,5E0,3E0,2E0,3E0,1E0,2E0,1E0,1E0,1E0,2E0,1E0,1E0],"tree_param":{"num_deleted":"0","num_feature":"24","num_nodes":"13","size_leaf_vector":"1"}},{"base_weights":[-4.935579E0,-6.1867035E1,1.4111632E1,-1.2954307E0,-1.9931867E0,-6.3814706E-1,2.1771645E1,1.5436739E1,1.2436272E0,2.2116789E1,8.580495E0,6.8577015E-1,4.8733807E-1,1.1113525E-1,3.41571E-1],"categories":[],"categories_nodes":[],"categories_segments":[],"categories_sizes":[],"default_left":[0,0,0,0,0,0,0,0,0,0,0,0,0,0,0],"id":41,"left_children":[1,3,5,-1,-1,-1,7,9,-1,11,13,-1,-1,-1,-1],"loss_changes":[8.70826E3,2.7486377E2,1.7539862E3,0E0,0E0,0E0,7.642971E2,1.7670013E2,0E0,1.4787842E1,3.3988907E1,0E0,0E0,0E0,0E0],"parents":[2147483647,0,0,1,1,2,2,6,6,7,7,9,9,10,10],"right_children":[2,4,6,-1,-1,-1,8,10,-1,12,14,-1,-1,-1,-1],"split_conditions":[1.4E1,1.2E1,1E1,-1.2954307E0,-1.9931867E0,-6.3814706E-1,2.7E1,1.3E1,1.2436272E0,1E1,1.9E1,6.8577015E-1,4.8733807E-1,1.1113525E-1,3.41571E-1],"split_indices":[4,4,5,0,0,0,4,5,0,6,4,0,0,0,0],"split_type":[0,0,0,0,0,0,0,0,0,0,0,0,0,0,0],"sum_hessian":[8E0,2E0,6E0,1E0,1E0,1E0,5E0,4E0,1E0,2E0,2E0,1E0,1E0,1E0,1E0],"tree_param":{"num_deleted":"0","num_feature":"24","num_nodes":"15","size_leaf_vector":"1"}},{"base_weights":[6.21183E-1,-6.02336E1,1.8110842E1,-1.2611877E0,-1.9404984E0,3.331351E1,-2.1674113E0,2.1534088E1,1.1999693E0,-6.2127876E-1,8.355641E0,6.676419E-1,4.7445497E-1,1.0819723E-1,3.3254236E-1],"categories":[1],"categories_nodes":[2],"categories_segments":[0],"categories_sizes":[1],"default_left":[0,0,1,0,0,0,0,0,0,0,0,0,0,0,0],"id":42,"left_children":[1,3,5,-1,-1,7,9,11,-1,-1,13,-1,-1,-1,-1],"loss_changes":[9.601348E3,2.6004785E2,2.167699E3,0E0,0E0,5.202095E2,6.7153906E2,1.38463745E1,0E0,0E0,3.2149994E1,0E0,0E0,0E0,0E0],"parents":[2147483647,0,0,1,1,2,2,5,5,6,6,7,7,10,10],"right_children":[2,4,6,-1,-1,8,10,12,-1,-1,14,-1,-1,-1,-1],"split_conditions":[1.4E1,3.056E2,1E-45,-1.2611877E0,-1.9404984E0,1.7E1,3.05E2,3.059E2,1.1999693E0,-6.2127876E-1,3.084E2,6.676419E-1,4.7445497E-1,1.0819723E-1,3.3254236E-1],"split_indices":[4,0,8,0,0,3,0,0,0,0,0,0,0,0,0],"split_type":[0,0,1,0,0,0,0,0,0,0,0,0,0,0,0],"sum_hessian":[9E0,2E0,7E0,1E0,1E0,4E0,3E0,2E0,2E0,1E0,2E0,1E0,1E0,1E0,1E0],"tree_param":{"num_deleted":"0","num_feature":"24","num_nodes":"15","size_leaf_vector":"1"}},{"base_weights":[6.0345477E-1,-3.206859E1,2.6786621E1,3.237525E-1,-4.682496E1,1.5380723E1,1.1680399E0,-6.0485584E-1,-5.864335E1,1.05336644E-1,2.0966816E1,-1.2278496E0,-1.8892031E0,6.499927E-1,4.619139E-1],"categories":[],"categories_nodes":[],"categories_segments":[],"categories_sizes":[],"default_left":[0,0,0,0,0,0,0,0,0,0,0,0,0,0,0],"id":43,"left_children":[1,3,5,-1,7,9,-1,-1,11,-1,13,-1,-1,-1,-1],"loss_changes":[7.7211396E3,2.6276738E3,9.44053E2,0E0,8.336304E2,1.878869E2,0E0,0E0,2.4601758E2,0E0,1.295813E1,0E0,0E0,0E0,0E0],"parents":[2147483647,0,0,1,1,2,2,4,4,5,5,8,8,10,10],"right_children":[2,4,6,-1,8,10,-1,-1,12,-1,14,-1,-1,-1,-1],"split_conditions":[4E1,6E1,7.6E1,3.237525E-1,3.05E2,6E1,1.1680399E0,-6.0485584E-1,3.056E2,1.05336644E-1,3.059E2,-1.2278496E0,-1.8892031E0,6.499927E-1,4.619139E-1],"split_indices":[21,1,18,0,0,1,0,0,0,0,0,0,0,0,0],"split_type":[0,0,0,0,0,0,0,0,0,0,0,0,0,0,0],"sum_hessian":[9E0,4E0,5E0,1E0,3E0,3E0,2E0,1E0,2E0,1E0,2E0,1E0,1E0,1E0,1E0],"tree_param":{"num_deleted":"0","num_feature":"24","num_nodes":"15","size_leaf_vector":"1"}},{"base_weights":[-2.3093846E0,-5.709513E1,1.6013615E1,-1.1953926E0,-1.839264E0,2.6631703E0,1.1369601E0,-5.8886695E-1,1.098933E1,1.0255189E-1,1.4446562E1,3.1519493E-1,4.497036E-1],"categories":[],"categories_nodes":[],"categories_segments":[],"categories_sizes":[],"default_left":[0,0,0,0,0,0,0,0,0,0,0,0,0],"id":44,"left_children":[1,3,5,-1,-1,7,-1,-1,9,-1,11,-1,-1],"loss_changes":[8.062369E3,2.3273242E2,2.1137803E3,0E0,0E0,8.2517584E2,0E0,0E0,7.113321E1,0E0,5.7418213E0,0E0,0E0],"parents":[2147483647,0,0,1,1,2,2,5,5,8,8,10,10],"right_children":[2,4,6,-1,-1,8,-1,-1,10,-1,12,-1,-1],"split_conditions":[1.4E1,3.056E2,7.6E1,-1.1953926E0,-1.839264E0,3.05E2,1.1369601E0,-5.8886695E-1,3.084E2,1.0255189E-1,3.087E2,3.1519493E-1,4.497036E-1],"split_indices":[4,0,18,0,0,0,0,0,0,0,0,0,0],"split_type":[0,0,0,0,0,0,0,0,0,0,0,0,0],"sum_hessian":[8E0,2E0,6E0,1E0,1E0,4E0,2E0,1E0,3E0,1E0,2E0,1E0,1E0],"tree_param":{"num_deleted":"0","num_feature":"24","num_nodes":"13","size_leaf_vector":"1"}},{"base_weights":[-4.3581815E0,-4.4387306E1,1.9683561E1,-5.733007E-1,-5.5587837E1,1.4011578E1,1.1181021E0,-1.1637939E0,-1.7906445E0,2.0140253E1,7.716128E0,6.3010097E-1,4.3781593E-1,9.984136E-2,3.0686325E-1],"categories":[],"categories_nodes":[],"categories_segments":[],"categories_sizes":[],"default_left":[0,0,0,0,0,0,0,0,0,0,0,0,0,0,0],"id":45,"left_children":[1,3,5,-1,7,9,-1,-1,-1,11,13,-1,-1,-1,-1],"loss_changes":[7.727077E3,7.4840283E2,6.1113855E2,0E0,2.2015137E2,1.4861646E2,0E0,0E0,0E0,1.4782288E1,2.7198753E1,0E0,0E0,0E0,0E0],"parents":[2147483647,0,0,1,1,2,2,4,4,5,5,9,9,10,10],"right_children":[2,4,6,-1,8,10,-1,-1,-1,12,14,-1,-1,-1,-1],"split_conditions":[4.929E0,3.05E2,6.174E0,-5.733007E-1,3.056E2,5.381E0,1.1181021E0,-1.1637939E0,-1.7906445E0,3.059E2,3.084E2,6.3010097E-1,4.3781593E-1,9.984136E-2,3.0686325E-1],"split_indices":[2,0,2,0,0,2,0,0,0,0,0,0,0,0,0],"split_type":[0,0,0,0,0,0,0,0,0,0,0,0,0,0,0],"sum_hessian":[8E0,3E0,5E0,1E0,2E0,4E0,1E0,1E0,1E0,2E0,2E0,1E0,1E0,1E0,1E0],"tree_param":{"num_deleted":"0","num_feature":"24","num_nodes":"15","size_leaf_vector":"1"}},{"base_weights":[1.9651144E1,-5.5814594E-1,3.3229282E1,1.1156547E0,4.2624295E-1],"categories":[],"categories_nodes":[],"categories_segments":[],"categories_sizes":[],"default_left":[0,0,0,0,0],"id":46,"left_children":[1,-1,3,-1,-1],"loss_changes":[2.2174097E3,0E0,4.2201733E2,0E0,0E0],"parents":[2147483647,0,0,2,2],"right_children":[2,-1,4,-1,-1],"split_conditions":[4.207E0,-5.5814594E-1,1.2E1,1.1156547E0,4.2624295E-1],"split_indices":[2,0,6,0,0],"split_type":[0,0,0,0,0],"sum_hessian":[4E0,1E0,3E0,2E0,1E0],"tree_param":{"num_deleted":"0","num_feature":"24","num_nodes":"5","size_leaf_vector":"1"}},{"base_weights":[-7.0634837E0,-4.377183E1,2.0484402E1,-5.433913E-1,-5.5228657E1,1.0946753E0,1.348998E1,-1.7728016E0,-1.1625209E0,1.8843945E1,6.771023E-2,5.839525E-1,4.1497487E-1],"categories":[],"categories_nodes":[],"categories_segments":[],"categories_sizes":[],"default_left":[0,0,0,0,0,0,0,0,0,0,0,0,0],"id":47,"left_children":[1,3,5,-1,7,-1,9,-1,-1,11,-1,-1,-1],"loss_changes":[7.1075234E3,7.845967E2,5.5671985E2,0E0,2.063086E2,0E0,1.7302808E2,0E0,0E0,9.889038E0,0E0,0E0,0E0],"parents":[2147483647,0,0,1,1,2,2,4,4,6,6,9,9],"right_children":[2,4,6,-1,8,-1,10,-1,-1,12,-1,-1,-1],"split_conditions":[4E1,4.207E0,4.42E0,-5.433913E-1,4.308E0,1.0946753E0,5.381E0,-1.7728016E0,-1.1625209E0,5.145E0,6.771023E-2,5.839525E-1,4.1497487E-1],"split_indices":[21,2,2,0,2,0,2,0,0,2,0,0,0],"split_type":[0,0,0,0,0,0,0,0,0,0,0,0,0],"sum_hessian":[7E0,3E0,4E0,1E0,2E0,1E0,3E0,1E0,1E0,2E0,1E0,1E0,1E0],"tree_param":{"num_deleted":"0","num_feature":"24","num_nodes":"13","size_leaf_vector":"1"}},{"base_weights":[5.751513E0,2.1900158E1,-4.2444817E1,3.3889194E1,9.764862E0,-5.2902704E-1,-1.7259393E0,5.6851697E-1,1.0705037E0,6.592096E-2,1.3302197E1,2.9999012E-1,4.0400526E-1],"categories":[0,1,4],"categories_nodes":[1],"categories_segments":[0],"categories_sizes":[3],"default_left":[0,1,0,0,0,0,0,0,0,0,0,0,0],"id":48,"left_children":[1,3,5,7,9,-1,-1,-1,-1,-1,11,-1,-1],"loss_changes":[6.2460977E3,8.639563E2,9.752388E2,2.1145361E2,7.5062225E1,0E0,0E0,0E0,0E0,0E0,1.3649292E0,0E0,0E0],"parents":[2147483647,0,0,1,1,2,2,3,3,4,4,10,10],"right_children":[2,4,6,8,10,-1,-1,-1,-1,-1,12,-1,-1],"split_conditions":[7.5E1,1E-45,3.05E2,3.059E2,3.084E2,-5.2902704E-1,-1.7259393E0,5.6851697E-1,1.0705037E0,6.592096E-2,3.087E2,2.9999012E-1,4.0400526E-1],"split_indices":[1,8,0,0,0,0,0,0,0,0,0,0,0],"split_type":[0,1,0,0,0,0,0,0,0,0,0,0,0],"sum_hessian":[8E0,6E0,2E0,3E0,3E0,1E0,1E0,1E0,2E0,1E0,2E0,1E0,1E0],"tree_param":{"num_deleted":"0","num_feature":"24","num_nodes":"13","size_leaf_vector":"1"}},{"base_weights":[-8.274347E0,-5.2946156E1,9.657677E0,-1.1335326E0,-1.6803153E0,2.172796E1,-8.397508E0,1.2952534E1,1.037441E0,6.417847E-2,-5.1504195E-1,2.920602E-1,3.933261E-1],"categories":[0],"categories_nodes":[2],"categories_segments":[0],"categories_sizes":[1],"default_left":[0,0,1,0,0,0,0,0,0,0,0,0,0],"id":49,"left_children":[1,3,5,-1,-1,7,9,11,-1,-1,-1,-1,-1],"loss_changes":[5.631318E3,1.583667E2,1.0969739E3,0E0,0E0,4.3521643E2,2.3848251E2,1.1914673E0,0E0,0E0,0E0,0E0,0E0],"parents":[2147483647,0,0,1,1,2,2,5,5,6,6,7,7],"right_children":[2,4,6,-1,-1,8,10,12,-1,-1,-1,-1,-1],"split_conditions":[9E0,7.1E1,1E-45,-1.1335326E0,-1.6803153E0,6.2E1,6E1,6E1,1.037441E0,6.417847E-2,-5.1504195E-1,2.920602E-1,3.933261E-1],"split_indices":[6,1,10,0,0,1,1,1,0,0,0,0,0],"split_type":[0,0,1,0,0,0,0,0,0,0,0,0,0],"sum_hessian":[7E0,2E0,5E0,1E0,1E0,3E0,2E0,2E0,1E0,1E0,1E0,1E0,1E0],"tree_param":{"num_deleted":"0","num_feature":"24","num_nodes":"13","size_leaf_vector":"1"}},{"base_weights":[4.710656E0,-4.023435E1,2.2777514E1,-5.01428E-1,-1.6358972E0,1.2295306E1,1.0243312E0,1.7154106E1,6.248277E-2,5.260648E-1,3.8292927E-1],"categories":[],"categories_nodes":[],"categories_segments":[],"categories_sizes":[],"default_left":[0,0,0,0,0,0,0,0,0,0,0],"id":50,"left_children":[1,3,5,-1,-1,7,-1,9,-1,-1,-1],"loss_changes":[5.704494E3,8.7550854E2,7.988362E2,0E0,0E0,1.4242056E2,0E0,5.4989014E0,0E0,0E0,0E0],"parents":[2147483647,0,0,1,1,2,2,5,5,7,7],"right_children":[2,4,6,-1,-1,8,-1,10,-1,-1,-1],"split_conditions":[1.2E1,3.05E2,7.6E1,-5.01428E-1,-1.6358972E0,1.7E1,1.0243312E0,3.059E2,6.248277E-2,5.260648E-1,3.8292927E-1],"split_indices":[5,0,18,0,0,3,0,0,0,0,0],"split_type":[0,0,0,0,0,0,0,0,0,0,0],"sum_hessian":[7E0,2E0,5E0,1E0,1E0,3E0,2E0,2E0,1E0,1E0,1E0],"tree_param":{"num_deleted":"0","num_feature":"24","num_nodes":"11","size_leaf_vector":"1"}},{"base_weights":[1.4742967E1,-7.9555626E0,2.3849186E1,6.0830638E-2,-4.881738E-1,1.4758159E1,9.970744E-1,1.2390871E1,5.121588E-1,2.8268787E-1,3.728067E-1],"categories":[],"categories_nodes":[],"categories_segments":[],"categories_sizes":[],"default_left":[0,0,0,0,0,0,0,0,0,0,0],"id":51,"left_children":[1,3,5,-1,-1,7,-1,9,-1,-1,-1],"loss_changes":[1.4545327E3,2.1437383E2,5.944949E2,0E0,0E0,2.3259705E1,0E0,3.982544E-2,0E0,0E0,0E0],"parents":[2147483647,0,0,1,1,2,2,5,5,7,7],"right_children":[2,4,6,-1,-1,8,-1,10,-1,-1,-1],"split_conditions":[8.7E1,6E1,1.8E1,6.0830638E-2,-4.881738E-1,6.2E1,9.970744E-1,6E1,5.121588E-1,2.8268787E-1,3.728067E-1],"split_indices":[17,1,3,0,0,1,0,1,0,0,0],"split_type":[0,0,0,0,0,0,0,0,0,0,0],"sum_hessian":[7E0,2E0,5E0,1E0,1E0,3E0,2E0,2E0,1E0,1E0,1E0],"tree_param":{"num_deleted":"0","num_feature":"24","num_nodes":"11","size_leaf_vector":"1"}},{"base_weights":[-5.3614956E-1,1.6342546E1,-5.101979E1,-4.7526976E-1,2.3218504E1,-1.0923164E0,-1.6190104E0,1.4370656E1,9.705435E-1,4.986207E-1,3.231789E-1],"categories":[],"categories_nodes":[],"categories_segments":[],"categories_sizes":[],"default_left":[0,0,0,0,0,0,0,0,0,0,0],"id":52,"left_children":[1,3,5,-1,7,-1,-1,9,-1,-1,-1],"loss_changes":[6.8443936E3,1.4156544E3,1.4635742E2,0E0,5.628164E2,0E0,0E0,2.1914795E1,0E0,0E0,0E0],"parents":[2147483647,0,0,1,1,2,2,4,4,7,7],"right_children":[2,4,6,-1,8,-1,-1,10,-1,-1,-1],"split_conditions":[2.4E1,3.05E2,3.056E2,-4.7526976E-1,1.8E1,-1.0923164E0,-1.6190104E0,3.059E2,9.705435E-1,4.986207E-1,3.231789E-1],"split_indices":[3,0,0,0,3,0,0,0,0,0,0],"split_type":[0,0,0,0,0,0,0,0,0,0,0],"sum_hessian":[8E0,6E0,2E0,1E0,5E0,1E0,1E0,3E0,2E0,1E0,2E0],"tree_param":{"num_deleted":"0","num_feature":"24","num_nodes":"11","size_leaf_vector":"1"}},{"base_weights":[-2.0742102E-2,-4.967307E1,1.4211662E1,-1.0634412E0,-1.576213E0,5.6875644E0,9.44719E-1,1.1503471E1,-4.6270612E-1,7.0018544E0,1.5854887E1,1.0201947E-1,2.6667154E-1,3.5440895E-1,4.854407E-1],"categories":[],"categories_nodes":[],"categories_segments":[],"categories_sizes":[],"default_left":[0,0,0,0,0,0,0,0,0,0,0,0,0,0,0],"id":53,"left_children":[1,3,5,-1,-1,7,-1,9,-1,11,13,-1,-1,-1,-1],"loss_changes":[6.3841387E3,1.3833057E2,1.250085E3,0E0,0E0,6.7127795E2,0E0,7.372357E1,0E0,1.6429321E1,4.1079407E0,0E0,0E0,0E0,0E0],"parents":[2147483647,0,0,1,1,2,2,5,5,7,7,9,9,10,10],"right_children":[2,4,6,-1,-1,8,-1,10,-1,12,14,-1,-1,-1,-1],"split_conditions":[1.4E1,7.1E1,7.6E1,-1.0634412E0,-1.576213E0,6.9E1,9.44719E-1,6E1,-4.6270612E-1,5.411E0,6.2E1,1.0201947E-1,2.6667154E-1,3.5440895E-1,4.854407E-1],"split_indices":[4,1,18,0,0,1,0,1,0,2,1,0,0,0,0],"split_type":[0,0,0,0,0,0,0,0,0,0,0,0,0,0,0],"sum_hessian":[9E0,2E0,7E0,1E0,1E0,5E0,2E0,4E0,1E0,2E0,2E0,1E0,1E0,1E0,1E0],"tree_param":{"num_deleted":"0","num_feature":"24","num_nodes":"15","size_leaf_vector":"1"}},{"base_weights":[-2.0251155E-2,-2.6060148E1,2.0795752E1,-3.5119178E0,-4.836198E1,1.1611044E1,9.1958165E-1,2.596225E-1,-4.5047483E-1,-1.0353307E0,-1.5345474E0,1.543774E1,9.932345E-2,4.7260925E-1,3.4503987E-1],"categories":[],"categories_nodes":[],"categories_segments":[],"categories_sizes":[],"default_left":[0,0,0,0,0,0,0,0,0,0,0,0,0,0,0],"id":54,"left_children":[1,3,5,7,9,11,-1,-1,-1,-1,-1,13,-1,-1,-1],"loss_changes":[4.893627E3,2.0081504E3,6.1106885E2,3.5695938E2,1.3073193E2,8.750836E1,0E0,0E0,0E0,0E0,0E0,3.7719727E0,0E0,0E0,0E0],"parents":[2147483647,0,0,1,1,2,2,3,3,4,4,5,5,11,11],"right_children":[2,4,6,8,10,12,-1,-1,-1,-1,-1,14,-1,-1,-1],"split_conditions":[4E1,2.1E1,6.4E1,1.8E1,2.55E1,1.7E1,9.1958165E-1,2.596225E-1,-4.5047483E-1,-1.0353307E0,-1.5345474E0,1.5E1,9.932345E-2,4.7260925E-1,3.4503987E-1],"split_indices":[21,3,21,3,3,3,0,0,0,0,0,3,0,0,0],"split_type":[0,0,0,0,0,0,0,0,0,0,0,0,0,0,0],"sum_hessian":[9E0,4E0,5E0,2E0,2E0,3E0,2E0,1E0,1E0,1E0,1E0,2E0,1E0,1E0,1E0],"tree_param":{"num_deleted":"0","num_feature":"24","num_nodes":"15","size_leaf_vector":"1"}},{"base_weights":[-4.876877E0,5.393973E0,-1.493983E0,-4.385662E-1,1.0909181E1,1.5031629E1,6.6404586E0,4.6011657E-1,3.3591923E-1,2.5275907E-1,9.6698426E-2],"categories":[],"categories_nodes":[],"categories_segments":[],"categories_sizes":[],"default_left":[0,0,0,0,0,0,0,0,0,0,0],"id":55,"left_children":[1,3,-1,-1,5,7,9,-1,-1,-1,-1],"loss_changes":[3.1550874E3,6.0340576E2,0E0,0E0,6.605975E1,3.456482E0,1.4656006E1,0E0,0E0,0E0,0E0],"parents":[2147483647,0,0,1,1,4,4,5,5,6,6],"right_children":[2,4,-1,-1,6,8,10,-1,-1,-1,-1],"split_conditions":[2.55E1,1E1,-1.493983E0,-4.385662E-1,1.7E1,1.5E1,1.8E1,4.6011657E-1,3.3591923E-1,2.5275907E-1,9.6698426E-2],"split_indices":[3,5,0,0,3,3,3,0,0,0,0],"split_type":[0,0,0,0,0,0,0,0,0,0,0],"sum_hessian":[6E0,5E0,1E0,1E0,4E0,2E0,2E0,1E0,1E0,1E0,1E0],"tree_param":{"num_deleted":"0","num_feature":"24","num_nodes":"11","size_leaf_vector":"1"}},{"base_weights":[4.791722E0,-3.5426746E1,1.8271435E1,-4.2697382E-1,-1.4544907E0,1.0623753E1,8.9254075E-1,1.4636218E1,6.4669003E0,4.4795302E-1,3.27039E-1,9.414278E-2,2.4607792E-1],"categories":[],"categories_nodes":[],"categories_segments":[],"categories_sizes":[],"default_left":[0,0,0,0,0,0,0,0,0,0,0,0,0],"id":56,"left_children":[1,3,5,-1,-1,7,-1,9,11,-1,-1,-1,-1],"loss_changes":[4.35033E3,7.1845996E2,6.808395E2,0E0,0E0,6.25278E1,0E0,3.1605835E0,1.3840317E1,0E0,0E0,0E0,0E0],"parents":[2147483647,0,0,1,1,2,2,5,5,7,7,8,8],"right_children":[2,4,6,-1,-1,8,-1,10,12,-1,-1,-1,-1],"split_conditions":[4.308E0,3.05E2,7.6E1,-4.2697382E-1,-1.4544907E0,5.381E0,8.9254075E-1,3.059E2,3.084E2,4.4795302E-1,3.27039E-1,9.414278E-2,2.4607792E-1],"split_indices":[2,0,18,0,0,2,0,0,0,0,0,0,0],"split_type":[0,0,0,0,0,0,0,0,0,0,0,0,0],"sum_hessian":[8E0,2E0,6E0,1E0,1E0,4E0,2E0,2E0,2E0,1E0,1E0,1E0,1E0],"tree_param":{"num_deleted":"0","num_feature":"24","num_nodes":"13","size_leaf_vector":"1"}},{"base_weights":[-1.2731132E-1,-2.4681904E1,1.9499943E1,2.3957264E-1,-3.5930103E1,2.7195513E1,7.7789726E0,-4.5891537E1,-4.156864E-1,8.687919E-1,4.361122E-1,9.16549E-2,3.1839433E-1,-1.0223589E0,-1.4160422E0],"categories":[0,1,4],"categories_nodes":[2],"categories_segments":[0],"categories_sizes":[3],"default_left":[0,0,1,0,0,0,0,0,0,0,0,0,0,0,0],"id":57,"left_children":[1,3,5,-1,7,9,11,13,-1,-1,-1,-1,-1,-1,-1],"loss_changes":[4.351043E3,1.526261E3,4.4415967E2,0E0,5.9403394E2,1.580022E2,3.320675E1,6.800098E1,0E0,0E0,0E0,0E0,0E0,0E0,0E0],"parents":[2147483647,0,0,1,1,2,2,4,4,5,5,6,6,7,7],"right_children":[2,4,6,-1,8,10,12,14,-1,-1,-1,-1,-1,-1,-1],"split_conditions":[9.6E1,6E1,1E-45,2.3957264E-1,7.8E1,1.3E1,6E1,7.1E1,-4.156864E-1,8.687919E-1,4.361122E-1,9.16549E-2,3.1839433E-1,-1.0223589E0,-1.4160422E0],"split_indices":[22,1,8,0,1,7,1,1,0,0,0,0,0,0,0],"split_type":[0,0,1,0,0,0,0,0,0,0,0,0,0,0,0],"sum_hessian":[9E0,4E0,5E0,1E0,3E0,3E0,2E0,2E0,1E0,2E0,1E0,1E0,1E0,1E0,1E0],"tree_param":{"num_deleted":"0","num_feature":"24","num_nodes":"15","size_leaf_vector":"1"}},{"base_weights":[-1.23895004E-1,-4.46804E1,1.2645852E1,-9.9533415E-1,-1.3786101E0,4.982032E0,8.456748E-1,-4.0469742E-1,1.0075345E1,6.1333947E0,1.3876532E1,8.923155E-2,2.3324E-1,4.2458436E-1,3.0997717E-1],"categories":[],"categories_nodes":[],"categories_segments":[],"categories_sizes":[],"default_left":[0,0,0,0,0,0,0,0,0,0,0,0,0,0,0],"id":58,"left_children":[1,3,5,-1,-1,7,-1,-1,9,11,13,-1,-1,-1,-1],"loss_changes":[5.14065E3,6.4100586E1,1.0096869E3,0E0,0E0,5.1427484E2,0E0,0E0,5.6014893E1,1.2338287E1,2.6234436E0,0E0,0E0,0E0,0E0],"parents":[2147483647,0,0,1,1,2,2,5,5,8,8,9,9,10,10],"right_children":[2,4,6,-1,-1,8,-1,-1,10,12,14,-1,-1,-1,-1],"split_conditions":[1.4E1,3.056E2,7.6E1,-9.9533415E-1,-1.3786101E0,3.05E2,8.456748E-1,-4.0469742E-1,6E1,3.084E2,3.059E2,8.923155E-2,2.3324E-1,4.2458436E-1,3.0997717E-1],"split_indices":[4,0,18,0,0,0,0,0,1,0,0,0,0,0,0],"split_type":[0,0,0,0,0,0,0,0,0,0,0,0,0,0,0],"sum_hessian":[9E0,2E0,7E0,1E0,1E0,5E0,2E0,1E0,4E0,2E0,2E0,1E0,1E0,1E0,1E0],"tree_param":{"num_deleted":"0","num_feature":"24","num_nodes":"15","size_leaf_vector":"1"}},{"base_weights":[6.5735745E0,-1.4260974E1,2.2232174E1,2.2707514E-1,-2.5685244E1,1.351168E1,8.231716E-1,-9.6902263E-1,-3.939989E-1,3.0178264E-1,4.1336143E-1],"categories":[],"categories_nodes":[],"categories_segments":[],"categories_sizes":[],"default_left":[0,0,0,0,0,0,0,0,0,0,0],"id":59,"left_children":[1,3,5,-1,7,9,-1,-1,-1,-1,-1],"loss_changes":[2.2934282E3,7.88232E2,2.853297E2,0E0,2.1716052E2,2.3800354E0,0E0,0E0,0E0,0E0,0E0],"parents":[2147483647,0,0,1,1,2,2,4,4,5,5],"right_children":[2,4,6,-1,8,10,-1,-1,-1,-1,-1],"split_conditions":[9.5E1,6E1,1.7E1,2.2707514E-1,7.1E1,6.2E1,8.231716E-1,-9.6902263E-1,-3.939989E-1,3.0178264E-1,4.1336143E-1],"split_indices":[22,1,3,0,1,1,0,0,0,0,0],"split_type":[0,0,0,0,0,0,0,0,0,0,0],"sum_hessian":[7E0,3E0,4E0,1E0,2E0,2E0,2E0,1E0,1E0,1E0,1E0],"tree_param":{"num_deleted":"0","num_feature":"24","num_nodes":"11","size_leaf_vector":"1"}},{"base_weights":[5.926325E0,-2.500826E1,1.6295206E1,-3.835843E-1,-9.434081E-1,9.3720875E0,8.012677E-1,1.1615318E1,6.5112635E-2,4.024338E-1,2.6112783E-1],"categories":[],"categories_nodes":[],"categories_segments":[],"categories_sizes":[],"default_left":[0,0,0,0,0,0,0,0,0,0,0],"id":60,"left_children":[1,3,5,-1,-1,7,-1,9,-1,-1,-1],"loss_changes":[2.5744443E3,2.0563416E2,5.573572E2,0E0,0E0,6.0016846E1,0E0,1.352475E1,0E0,0E0,0E0],"parents":[2147483647,0,0,1,1,2,2,5,5,7,7],"right_children":[2,4,6,-1,-1,8,-1,10,-1,-1,-1],"split_conditions":[3.056E2,3.05E2,7.6E1,-3.835843E-1,-9.434081E-1,1.6E1,8.012677E-1,3.059E2,6.5112635E-2,4.024338E-1,2.6112783E-1],"split_indices":[0,0,18,0,0,7,0,0,0,0,0],"split_type":[0,0,0,0,0,0,0,0,0,0,0],"sum_hessian":[8E0,2E0,6E0,1E0,1E0,4E0,2E0,3E0,1E0,1E0,2E0],"tree_param":{"num_deleted":"0","num_feature":"24","num_nodes":"11","size_leaf_vector":"1"}},{"base_weights":[-9.696126E0,-3.3527935E1,1.412893E1,-4.3089954E1,-3.73444E-1,6.656193E0,7.6723784E-1,-9.184695E-1,-1.3708311E0,6.339112E-2,2.8690374E-1],"categories":[],"categories_nodes":[],"categories_segments":[],"categories_sizes":[],"default_left":[0,0,0,0,0,0,0,0,0,0,0],"id":61,"left_children":[1,3,5,7,-1,9,-1,-1,-1,-1,-1],"loss_changes":[3.4235195E3,5.4782935E2,3.190227E2,1.0718408E2,0E0,3.272818E1,0E0,0E0,0E0,0E0,0E0],"parents":[2147483647,0,0,1,1,2,2,3,3,5,5],"right_children":[2,4,6,8,-1,10,-1,-1,-1,-1,-1],"split_conditions":[4E1,7.8E1,6.2E1,7.1E1,-3.73444E-1,6E1,7.6723784E-1,-9.184695E-1,-1.3708311E0,6.339112E-2,2.8690374E-1],"split_indices":[21,1,1,1,0,1,0,0,0,0,0],"split_type":[0,0,0,0,0,0,0,0,0,0,0],"sum_hessian":[6E0,3E0,3E0,2E0,1E0,2E0,1E0,1E0,1E0,1E0,1E0],"tree_param":{"num_deleted":"0","num_feature":"24","num_nodes":"11","size_leaf_vector":"1"}},{"base_weights":[-2.2531884E0,-4.195288E1,1.1018749E1,-8.941909E-1,-1.3345946E0,7.688958E-1,2.072423E0,-3.6357152E-1,7.3741174E0,6.1714787E-2,2.6258218E-1],"categories":[0,1,4],"categories_nodes":[2],"categories_segments":[0],"categories_sizes":[3],"default_left":[0,0,1,0,0,0,0,0,0,0,0],"id":62,"left_children":[1,3,5,-1,-1,-1,7,-1,9,-1,-1],"loss_changes":[4.232915E3,1.0126123E2,9.4609424E2,0E0,0E0,0E0,3.3330402E2,0E0,3.4999496E1,0E0,0E0],"parents":[2147483647,0,0,1,1,2,2,6,6,8,8],"right_children":[2,4,6,-1,-1,-1,8,-1,10,-1,-1],"split_conditions":[1.4E1,3.056E2,1E-45,-8.941909E-1,-1.3345946E0,7.688958E-1,3.05E2,-3.6357152E-1,3.084E2,6.1714787E-2,2.6258218E-1],"split_indices":[4,0,8,0,0,0,0,0,0,0,0],"split_type":[0,0,1,0,0,0,0,0,0,0,0],"sum_hessian":[8E0,2E0,6E0,1E0,1E0,2E0,4E0,1E0,3E0,1E0,2E0],"tree_param":{"num_deleted":"0","num_feature":"24","num_nodes":"11","size_leaf_vector":"1"}},{"base_weights":[-4.6076545E-1,-4.0845863E1,1.1112137E1,-1.2993158E0,-8.705544E-1,4.2943354E0,7.4843574E-1,-3.5396042E-1,8.738042E0,1.0833993E1,6.0083624E-2,3.5119018E-1,2.5559545E-1],"categories":[],"categories_nodes":[],"categories_segments":[],"categories_sizes":[],"default_left":[0,0,0,0,0,0,0,0,0,0,0,0,0],"id":63,"left_children":[1,3,5,-1,-1,7,-1,-1,9,11,-1,-1,-1],"loss_changes":[4.223053E3,9.565552E1,7.9828796E2,0E0,0E0,3.909224E2,0E0,0E0,5.2356964E1,3.815918E0,0E0,0E0,0E0],"parents":[2147483647,0,0,1,1,2,2,5,5,8,8,9,9],"right_children":[2,4,6,-1,-1,8,-1,-1,10,12,-1,-1,-1],"split_conditions":[9E0,4.308E0,6.4E1,-1.2993158E0,-8.705544E-1,4.207E0,7.4843574E-1,-3.5396042E-1,1.6E1,5.145E0,6.0083624E-2,3.5119018E-1,2.5559545E-1],"split_indices":[6,2,21,0,0,2,0,0,7,2,0,0,0],"split_type":[0,0,0,0,0,0,0,0,0,0,0,0,0],"sum_hessian":[9E0,2E0,7E0,1E0,1E0,5E0,2E0,1E0,4E0,3E0,1E0,1E0,2E0],"tree_param":{"num_deleted":"0","num_feature":"24","num_nodes":"13","size_leaf_vector":"1"}},{"base_weights":[-4.680631E0,2.1556257E1,-3.0946415E1,7.285213E-1,2.6562122E-1,-3.4460425E-1,-3.9768105E1,-1.2649695E0,-8.475423E-1],"categories":[1],"categories_nodes":[0],"categories_segments":[0],"categories_sizes":[1],"default_left":[1,0,0,0,0,0,0,0,0],"id":64,"left_children":[1,3,5,-1,-1,-1,7,-1,-1],"loss_changes":[4.154241E3,1.8874756E2,4.6597656E2,0E0,0E0,0E0,9.035083E1,0E0,0E0],"parents":[2147483647,0,0,1,1,2,2,6,6],"right_children":[2,4,6,-1,-1,-1,8,-1,-1],"split_conditions":[1E-45,1.2E1,4.207E0,7.285213E-1,2.6562122E-1,-3.4460425E-1,4.308E0,-1.2649695E0,-8.475423E-1],"split_indices":[8,6,2,0,0,0,2,0,0],"split_type":[1,0,0,0,0,0,0,0,0],"sum_hessian":[6E0,3E0,3E0,2E0,1E0,1E0,2E0,1E0,1E0],"tree_param":{"num_deleted":"0","num_feature":"24","num_nodes":"9","size_leaf_vector":"1"}},{"base_weights":[-3.5576177E0,-3.8718826E1,8.197683E0,-8.2513845E-1,-1.2315307E0,-3.354949E-1,1.2394266E1,8.682837E0,7.1742374E-1,2.8122836E-1,8.089989E-2],"categories":[],"categories_nodes":[],"categories_segments":[],"categories_sizes":[],"default_left":[0,0,0,0,0,0,0,0,0,0,0],"id":65,"left_children":[1,3,5,-1,-1,-1,7,9,-1,-1,-1],"loss_changes":[3.3209253E3,8.5331055E1,5.2499146E2,0E0,0E0,0E0,2.5934595E2,3.8835632E1,0E0,0E0,0E0],"parents":[2147483647,0,0,1,1,2,2,6,6,7,7],"right_children":[2,4,6,-1,-1,-1,8,10,-1,-1,-1],"split_conditions":[9E0,3.056E2,3.05E2,-8.2513845E-1,-1.2315307E0,-3.354949E-1,2E1,1.8E1,7.1742374E-1,2.8122836E-1,8.089989E-2],"split_indices":[6,0,0,0,0,0,5,3,0,0,0],"split_type":[0,0,0,0,0,0,0,0,0,0,0],"sum_hessian":[8E0,2E0,6E0,1E0,1E0,1E0,5E0,4E0,1E0,3E0,1E0],"tree_param":{"num_deleted":"0","num_feature":"24","num_nodes":"11","size_leaf_vector":"1"}},{"base_weights":[-2.3841717E0,2.737281E-1,-2.1305899E1,-8.0332667E-1,-3.2662597E-1],"categories":[],"categories_nodes":[],"categories_segments":[],"categories_sizes":[],"default_left":[0,0,0,0,0],"id":66,"left_children":[1,-1,3,-1,-1],"loss_changes":[1.2001063E3,0E0,1.4815753E2,0E0,0E0],"parents":[2147483647,0,0,2,2],"right_children":[2,-1,4,-1,-1],"split_conditions":[6.9E1,2.737281E-1,7.1E1,-8.0332667E-1,-3.2662597E-1],"split_indices":[1,0,1,0,0],"split_type":[0,0,0,0,0],"sum_hessian":[5E0,3E0,2E0,1E0,1E0],"tree_param":{"num_deleted":"0","num_feature":"24","num_nodes":"5","size_leaf_vector":"1"}},{"base_weights":[3.5158095E0,1.422379E1,-2.841566E1,8.179612E0,6.992189E-1,-3.179926E-1,-1.1903418E0,2.6642805E-1,7.152595E-2],"categories":[],"categories_nodes":[],"categories_segments":[],"categories_sizes":[],"default_left":[0,0,0,0,0,0,0,0,0],"id":67,"left_children":[1,3,5,7,-1,-1,-1,-1,-1],"loss_changes":[2.74318E3,4.238319E2,5.182842E2,3.68313E1,0E0,0E0,0E0,0E0,0E0],"parents":[2147483647,0,0,1,1,2,2,3,3],"right_children":[2,4,6,8,-1,-1,-1,-1,-1],"split_conditions":[7.5E1,7.6E1,3.05E2,1.8E1,6.992189E-1,-3.179926E-1,-1.1903418E0,2.6642805E-1,7.152595E-2],"split_indices":[1,18,0,3,0,0,0,0,0],"split_type":[0,0,0,0,0,0,0,0,0],"sum_hessian":[8E0,6E0,2E0,4E0,2E0,1E0,1E0,3E0,1E0],"tree_param":{"num_deleted":"0","num_feature":"24","num_nodes":"9","size_leaf_vector":"1"}},{"base_weights":[-3.4561515E0,-1.9143951E1,1.2205893E1,-1.5068845E0,-3.6580326E1,7.7253027E0,6.7560244E-1,2.2544235E-1,-3.095867E-1,-7.8398186E-1,-1.1588762E0,2.72675E-1,6.963503E-2],"categories":[],"categories_nodes":[],"categories_segments":[],"categories_sizes":[],"default_left":[0,0,0,0,0,0,0,0,0,0,0,0,0],"id":68,"left_children":[1,3,5,7,9,11,-1,-1,-1,-1,-1,-1,-1],"loss_changes":[1.9730381E3,1.227776E3,2.2654852E2,2.0256874E2,7.07168E1,3.5649216E1,0E0,0E0,0E0,0E0,0E0,0E0,0E0],"parents":[2147483647,0,0,1,1,2,2,3,3,4,4,5,5],"right_children":[2,4,6,8,10,12,-1,-1,-1,-1,-1,-1,-1],"split_conditions":[4E1,2.1E1,9.3E1,1.8E1,2.55E1,1.7E1,6.7560244E-1,2.2544235E-1,-3.095867E-1,-7.8398186E-1,-1.1588762E0,2.72675E-1,6.963503E-2],"split_indices":[21,3,17,3,3,3,0,0,0,0,0,0,0],"split_type":[0,0,0,0,0,0,0,0,0,0,0,0,0],"sum_hessian":[8E0,4E0,4E0,2E0,2E0,3E0,1E0,1E0,1E0,1E0,1E0,2E0,1E0],"tree_param":{"num_deleted":"0","num_feature":"24","num_nodes":"13","size_leaf_vector":"1"}},{"base_weights":[-1.5859982E-1,1.1210412E1,-2.2895288E1,1.5750691E1,-3.0140346E-1,6.779413E-2,-3.561531E1,9.425526E0,6.706985E-1,-7.6325756E-1,-1.1282423E0,2.2805111E-1,2.9372683E-1],"categories":[],"categories_nodes":[],"categories_segments":[],"categories_sizes":[],"default_left":[0,0,0,0,0,0,0,0,0,0,0,0,0],"id":69,"left_children":[1,3,5,7,-1,-1,9,11,-1,-1,-1,-1,-1],"loss_changes":[2.3350422E3,6.1630963E2,9.8071106E2,2.8625342E2,0E0,0E0,6.674634E1,7.977295E-2,0E0,0E0,0E0,0E0,0E0],"parents":[2147483647,0,0,1,1,2,2,3,3,6,6,7,7],"right_children":[2,4,6,8,-1,-1,10,12,-1,-1,-1,-1,-1],"split_conditions":[2.4E1,7.5E1,6E1,1.8E1,-3.0140346E-1,6.779413E-2,7.1E1,6.2E1,6.706985E-1,-7.6325756E-1,-1.1282423E0,2.2805111E-1,2.9372683E-1],"split_indices":[3,1,1,3,0,0,1,1,0,0,0,0,0],"split_type":[0,0,0,0,0,0,0,0,0,0,0,0,0],"sum_hessian":[9E0,6E0,3E0,5E0,1E0,1E0,2E0,3E0,2E0,1E0,1E0,2E0,1E0],"tree_param":{"num_deleted":"0","num_feature":"24","num_nodes":"13","size_leaf_vector":"1"}},{"base_weights":[4.1408033E0,-1.9550276E1,1.3673759E1,-7.4308187E-1,-2.9343644E-1,6.4152555E0,6.528516E-1,2.2198357E-1,6.6001624E-2],"categories":[],"categories_nodes":[],"categories_segments":[],"categories_sizes":[],"default_left":[0,0,0,0,0,0,0,0,0],"id":70,"left_children":[1,3,5,-1,-1,7,-1,-1,-1],"loss_changes":[1.5866061E3,1.3192853E2,3.8265668E2,0E0,0E0,2.041201E1,0E0,0E0,0E0],"parents":[2147483647,0,0,1,1,2,2,5,5],"right_children":[2,4,6,-1,-1,8,-1,-1,-1],"split_conditions":[3.7E1,7.1E1,7.6E1,-7.4308187E-1,-2.9343644E-1,1.8E1,6.528516E-1,2.2198357E-1,6.6001624E-2],"split_indices":[21,1,18,0,0,3,0,0,0],"split_type":[0,0,0,0,0,0,0,0,0],"sum_hessian":[7E0,2E0,5E0,1E0,1E0,3E0,2E0,2E0,1E0],"tree_param":{"num_deleted":"0","num_feature":"24","num_nodes":"9","size_leaf_vector":"1"}},{"base_weights":[-1.6482565E0,-3.433951E1,9.275859E0,-7.234385E-1,-1.1001632E0,1.959639E0,6.3548046E-1,-2.8567916E-1,6.246023E0,6.4257525E-2,2.1607679E-1],"categories":[],"categories_nodes":[],"categories_segments":[],"categories_sizes":[],"default_left":[0,0,0,0,0,0,0,0,0,0,0],"id":71,"left_children":[1,3,5,-1,-1,7,-1,-1,9,-1,-1],"loss_changes":[2.8697173E3,7.445337E1,6.312075E2,0E0,0E0,2.1740756E2,0E0,0E0,1.9286995E1,0E0,0E0],"parents":[2147483647,0,0,1,1,2,2,5,5,8,8],"right_children":[2,4,6,-1,-1,8,-1,-1,10,-1,-1],"split_conditions":[9E0,3.056E2,7.6E1,-7.234385E-1,-1.1001632E0,3.05E2,6.3548046E-1,-2.8567916E-1,3.084E2,6.4257525E-2,2.1607679E-1],"split_indices":[6,0,18,0,0,0,0,0,0,0,0],"split_type":[0,0,0,0,0,0,0,0,0,0,0],"sum_hessian":[8E0,2E0,6E0,1E0,1E0,4E0,2E0,1E0,3E0,1E0,2E0],"tree_param":{"num_deleted":"0","num_feature":"24","num_nodes":"11","size_leaf_vector":"1"}},{"base_weights":[-3.151966E0,1.0487317E1,-2.5879602E1,6.1911356E-1,7.227411E0,-3.343373E1,-2.7812675E-1,8.790971E0,6.25586E-2,-7.043147E-1,-1.0710815E0,2.1032758E-1,2.783962E-1],"categories":[],"categories_nodes":[],"categories_segments":[],"categories_sizes":[],"default_left":[0,0,0,0,0,0,0,0,0,0,0,0,0],"id":72,"left_children":[1,3,5,-1,7,9,-1,11,-1,-1,-1,-1,-1],"loss_changes":[2.4899434E3,1.9959369E2,3.415769E2,0E0,2.8761993E1,7.0305664E1,0E0,7.222595E-1,0E0,0E0,0E0,0E0,0E0],"parents":[2147483647,0,0,1,1,2,2,4,4,5,5,7,7],"right_children":[2,4,6,-1,8,10,-1,12,-1,-1,-1,-1,-1],"split_conditions":[6.9E1,5.7E1,7.8E1,6.1911356E-1,1.8E1,7.1E1,-2.7812675E-1,6.2E1,6.25586E-2,-7.043147E-1,-1.0710815E0,2.1032758E-1,2.783962E-1],"split_indices":[1,1,1,0,3,1,0,1,0,0,0,0,0],"split_type":[0,0,0,0,0,0,0,0,0,0,0,0,0],"sum_hessian":[8E0,5E0,3E0,1E0,4E0,2E0,1E0,3E0,1E0,1E0,1E0,2E0,1E0],"tree_param":{"num_deleted":"0","num_feature":"24","num_nodes":"13","size_leaf_vector":"1"}},{"base_weights":[4.849091E0,-1.8046211E1,1.2528737E1,-2.7077445E-1,-6.8569756E-1,4.9073286E0,1.6273327E1,1.9631541E-1,6.090485E-2,2.4233891E-1,6.245837E-1],"categories":[],"categories_nodes":[],"categories_segments":[],"categories_sizes":[],"default_left":[0,0,0,0,0,0,0,0,0,0,0],"id":73,"left_children":[1,3,5,-1,-1,7,9,-1,-1,-1,-1],"loss_changes":[1.411146E3,1.1192377E2,1.6738824E2,0E0,0E0,1.1184555E1,1.9664783E2,0E0,0E0,0E0,0E0],"parents":[2147483647,0,0,1,1,2,2,5,5,6,6],"right_children":[2,4,6,-1,-1,8,10,-1,-1,-1,-1],"split_conditions":[8.6E1,2.1E1,8.9E1,-2.7077445E-1,-6.8569756E-1,1.8E1,1.7E1,1.9631541E-1,6.090485E-2,2.4233891E-1,6.245837E-1],"split_indices":[17,3,17,0,0,3,3,0,0,0,0],"split_type":[0,0,0,0,0,0,0,0,0,0,0],"sum_hessian":[8E0,2E0,6E0,1E0,1E0,2E0,4E0,1E0,1E0,2E0,2E0],"tree_param":{"num_deleted":"0","num_feature":"24","num_nodes":"11","size_leaf_vector":"1"}},{"base_weights":[-3.0790988E-2,6.603197E0,-1.0592786E0,-2.6361734E-1,9.939348E0,5.862371E-1,6.8528023E0,5.9294667E-2,8.33302E0,2.6463217E-1,1.9889571E-1],"categories":[],"categories_nodes":[],"categories_segments":[],"categories_sizes":[],"default_left":[0,0,0,0,0,0,0,0,0,0,0],"id":74,"left_children":[1,3,-1,-1,5,-1,7,-1,9,-1,-1],"loss_changes":[1.8468944E3,3.3122122E2,0E0,0E0,1.7857346E2,0E0,2.5738586E1,0E0,6.691742E-1,0E0,0E0],"parents":[2147483647,0,0,1,1,4,4,6,6,8,8],"right_children":[2,4,-1,-1,6,-1,8,-1,10,-1,-1],"split_conditions":[3.155E2,3.05E2,-1.0592786E0,-2.6361734E-1,5.7E1,5.862371E-1,1.7E1,5.9294667E-2,3.059E2,2.6463217E-1,1.9889571E-1],"split_indices":[0,0,0,0,1,0,15,0,0,0,0],"split_type":[0,0,0,0,0,0,0,0,0,0,0],"sum_hessian":[7E0,6E0,1E0,1E0,5E0,1E0,4E0,1E0,3E0,1E0,2E0],"tree_param":{"num_deleted":"0","num_feature":"24","num_nodes":"11","size_leaf_vector":"1"}},{"base_weights":[-3.2282817E0,-3.212689E1,6.42952E0,-6.7456824E-1,-1.0312778E0,9.678446E0,-2.5664902E-1,5.707403E-1,6.6729655E0,8.11317E0,5.7728045E-2,1.9360283E-1,2.576364E-1],"categories":[],"categories_nodes":[],"categories_segments":[],"categories_sizes":[],"default_left":[0,0,0,0,0,0,0,0,0,0,0,0,0],"id":75,"left_children":[1,3,5,-1,-1,7,-1,-1,9,11,-1,-1,-1],"loss_changes":[2.2430752E3,6.668799E1,3.1405228E2,0E0,0E0,1.691492E2,0E0,0E0,2.4346573E1,5.7481384E-1,0E0,0E0,0E0],"parents":[2147483647,0,0,1,1,2,2,5,5,8,8,9,9],"right_children":[2,4,6,-1,-1,8,-1,-1,10,12,-1,-1,-1],"split_conditions":[1.4E1,7.1E1,6.9E1,-6.7456824E-1,-1.0312778E0,5.7E1,-2.5664902E-1,5.707403E-1,1.8E1,6.2E1,5.7728045E-2,1.9360283E-1,2.576364E-1],"split_indices":[4,1,1,0,0,1,0,0,3,1,0,0,0],"split_type":[0,0,0,0,0,0,0,0,0,0,0,0,0],"sum_hessian":[8E0,2E0,6E0,1E0,1E0,5E0,1E0,1E0,4E0,3E0,1E0,2E0,1E0],"tree_param":{"num_deleted":"0","num_feature":"24","num_nodes":"13","size_leaf_vector":"1"}},{"base_weights":[-4.840169E-1,9.802838E0,-3.1279606E1,5.9333974E-1,3.5384634E0,-6.567368E-1,-1.0040168E0,7.8991733E0,-2.498646E-1,1.8845126E-1,2.5082618E-1],"categories":[],"categories_nodes":[],"categories_segments":[],"categories_sizes":[],"default_left":[0,0,0,0,0,0,0,0,0,0,0],"id":76,"left_children":[1,3,5,-1,7,-1,-1,9,-1,-1,-1],"loss_changes":[2.54582E3,4.6027924E2,6.296167E1,0E0,2.2594504E2,0E0,0E0,4.8687744E-1,0E0,0E0,0E0],"parents":[2147483647,0,0,1,1,2,2,4,4,7,7],"right_children":[2,4,6,-1,8,-1,-1,10,-1,-1,-1],"split_conditions":[2.4E1,2.6E1,7.1E1,5.9333974E-1,6.9E1,-6.567368E-1,-1.0040168E0,6.2E1,-2.498646E-1,1.8845126E-1,2.5082618E-1],"split_indices":[3,15,1,0,1,0,0,1,0,0,0],"split_type":[0,0,0,0,0,0,0,0,0,0,0],"sum_hessian":[8E0,6E0,2E0,2E0,4E0,1E0,1E0,3E0,1E0,2E0,1E0],"tree_param":{"num_deleted":"0","num_feature":"24","num_nodes":"11","size_leaf_vector":"1"}},{"base_weights":[-9.432649E-2,-3.045471E1,8.600092E0,-6.3937646E-1,-9.7747606E-1,3.3421452E0,5.7755214E-1,-2.432593E-1,6.5051126E0,7.6908283E0,7.356208E-2,2.4419506E-1,1.8343614E-1],"categories":[],"categories_nodes":[],"categories_segments":[],"categories_sizes":[],"default_left":[0,0,0,0,0,0,0,0,0,0,0,0,0],"id":77,"left_children":[1,3,5,-1,-1,7,-1,-1,9,11,-1,-1,-1],"loss_changes":[2.3859536E3,5.943628E1,4.732934E2,0E0,0E0,1.9740399E2,0E0,0E0,1.6047028E1,4.049225E-1,0E0,0E0,0E0],"parents":[2147483647,0,0,1,1,2,2,5,5,8,8,9,9],"right_children":[2,4,6,-1,-1,8,-1,-1,10,12,-1,-1,-1],"split_conditions":[1.4E1,2.55E1,7.6E1,-6.3937646E-1,-9.7747606E-1,1E1,5.7755214E-1,-2.432593E-1,1.8E1,1.5E1,7.356208E-2,2.4419506E-1,1.8343614E-1],"split_indices":[4,3,18,0,0,5,0,0,3,3,0,0,0],"split_type":[0,0,0,0,0,0,0,0,0,0,0,0,0],"sum_hessian":[9E0,2E0,7E0,1E0,1E0,5E0,2E0,1E0,4E0,3E0,1E0,1E0,2E0],"tree_param":{"num_deleted":"0","num_feature":"24","num_nodes":"13","size_leaf_vector":"1"}},{"base_weights":[-2.5992353E0,-1.549621E1,1.0269143E1,-1.1642238E0,-2.9651611E1,6.241385E0,5.883361E-1,-2.3682822E-1,1.7092028E-1,-6.224743E-1,-9.516373E-1,2.1218632E-1,7.1617916E-2],"categories":[],"categories_nodes":[],"categories_segments":[],"categories_sizes":[],"default_left":[0,0,0,0,0,0,0,0,0,0,0,0,0],"id":78,"left_children":[1,3,5,7,9,11,-1,-1,-1,-1,-1,-1,-1],"loss_changes":[1.3328112E3,8.0913763E2,1.8301343E2,1.1774272E2,5.6101807E1,1.6198654E1,0E0,0E0,0E0,0E0,0E0,0E0,0E0],"parents":[2147483647,0,0,1,1,2,2,3,3,4,4,5,5],"right_children":[2,4,6,8,10,12,-1,-1,-1,-1,-1,-1,-1],"split_conditions":[9.6E1,2.1E1,1.19E2,3.05E2,3.056E2,1.7E1,5.883361E-1,-2.3682822E-1,1.7092028E-1,-6.224743E-1,-9.516373E-1,2.1218632E-1,7.1617916E-2],"split_indices":[22,3,22,0,0,3,0,0,0,0,0,0,0],"split_type":[0,0,0,0,0,0,0,0,0,0,0,0,0],"sum_hessian":[8E0,4E0,4E0,2E0,2E0,3E0,1E0,1E0,1E0,1E0,1E0,2E0,1E0],"tree_param":{"num_deleted":"0","num_feature":"24","num_nodes":"13","size_leaf_vector":"1"}},{"base_weights":[4.0080166E0,-1.5793589E1,1.1979342E1,-2.3056819E-1,-6.0601914E-1,6.0768113E0,5.5340374E-1,2.0654105E-1,6.972538E-2],"categories":[],"categories_nodes":[],"categories_segments":[],"categories_sizes":[],"default_left":[0,0,0,0,0,0,0,0,0],"id":79,"left_children":[1,3,5,-1,-1,7,-1,-1,-1],"loss_changes":[1.1089631E3,9.1569275E1,2.5121613E2,0E0,0E0,1.5296516E1,0E0,0E0,0E0],"parents":[2147483647,0,0,1,1,2,2,5,5],"right_children":[2,4,6,-1,-1,8,-1,-1,-1],"split_conditions":[3.056E2,3.05E2,7.6E1,-2.3056819E-1,-6.0601914E-1,5.381E0,5.5340374E-1,2.0654105E-1,6.972538E-2],"split_indices":[0,0,18,0,0,2,0,0,0],"split_type":[0,0,0,0,0,0,0,0,0],"sum_hessian":[7E0,2E0,5E0,1E0,1E0,3E0,2E0,2E0,1E0],"tree_param":{"num_deleted":"0","num_feature":"24","num_nodes":"9","size_leaf_vector":"1"}},{"base_weights":[2.5951185E0,8.013343E0,-9.319415E-1,-2.2447269E-1,1.0782945E1,1.5605739E1,5.8629766E0,5.386783E-1,1.6883092E-1,1.9889571E-1,6.7882866E-2],"categories":[],"categories_nodes":[],"categories_segments":[],"categories_sizes":[],"default_left":[0,0,0,0,0,0,0,0,0,0,0],"id":80,"left_children":[1,3,-1,-1,5,7,9,-1,-1,-1,-1],"loss_changes":[1.6229922E3,3.1999155E2,0E0,0E0,1.3826001E2,1.2064746E2,1.39338455E1,0E0,0E0,0E0,0E0],"parents":[2147483647,0,0,1,1,4,4,5,5,6,6],"right_children":[2,4,-1,-1,6,8,10,-1,-1,-1,-1],"split_conditions":[3.155E2,3.05E2,-9.319415E-1,-2.2447269E-1,1.3E1,1.2E1,1.6E1,5.386783E-1,1.6883092E-1,1.9889571E-1,6.7882866E-2],"split_indices":[0,0,0,0,7,6,7,0,0,0,0],"split_type":[0,0,0,0,0,0,0,0,0,0,0],"sum_hessian":[8E0,7E0,1E0,1E0,6E0,3E0,3E0,2E0,1E0,2E0,1E0],"tree_param":{"num_deleted":"0","num_feature":"24","num_nodes":"11","size_leaf_vector":"1"}},{"base_weights":[-2.7392143E-1,-2.8476006E1,7.8012567E0,-6.042396E-1,-9.073064E-1,3.0223541E0,5.243442E-1,5.8726187E0,-2.1853857E-1,6.942256E0,6.608874E-2,1.6489162E-1,2.2141366E-1],"categories":[],"categories_nodes":[],"categories_segments":[],"categories_sizes":[],"default_left":[0,0,0,0,0,0,0,0,0,0,0,0,0],"id":81,"left_children":[1,3,5,-1,-1,7,-1,9,-1,11,-1,-1,-1],"loss_changes":[2.058705E3,4.5703125E1,3.904591E2,0E0,0E0,1.6006525E2,0E0,1.2985092E1,0E0,3.0581665E-1,0E0,0E0,0E0],"parents":[2147483647,0,0,1,1,2,2,5,5,7,7,9,9],"right_children":[2,4,6,-1,-1,8,-1,10,-1,12,-1,-1,-1],"split_conditions":[1.4E1,7.1E1,6.4E1,-6.042396E-1,-9.073064E-1,6.9E1,5.243442E-1,1.8E1,-2.1853857E-1,6.2E1,6.608874E-2,1.6489162E-1,2.2141366E-1],"split_indices":[4,1,21,0,0,1,0,3,0,1,0,0,0],"split_type":[0,0,0,0,0,0,0,0,0,0,0,0,0],"sum_hessian":[9E0,2E0,7E0,1E0,1E0,5E0,2E0,4E0,1E0,3E0,1E0,2E0,1E0],"tree_param":{"num_deleted":"0","num_feature":"24","num_nodes":"13","size_leaf_vector":"1"}},{"base_weights":[1.3432034E0,-1.5125426E1,9.637577E0,-2.1276093E-1,-5.8826673E-1,4.8007932E-1,6.7593107E0,2.155602E-1,1.6050337E-1],"categories":[],"categories_nodes":[],"categories_segments":[],"categories_sizes":[],"default_left":[0,0,0,0,0,0,0,0,0],"id":82,"left_children":[1,3,5,-1,-1,-1,7,-1,-1],"loss_changes":[8.22519E2,9.206973E1,9.040823E1,0E0,0E0,0E0,2.3982239E-1,0E0,0E0],"parents":[2147483647,0,0,1,1,2,2,6,6],"right_children":[2,4,6,-1,-1,-1,8,-1,-1],"split_conditions":[3.056E2,3.05E2,5.7E1,-2.1276093E-1,-5.8826673E-1,4.8007932E-1,3.059E2,2.155602E-1,1.6050337E-1],"split_indices":[0,0,1,0,0,0,0,0,0],"split_type":[0,0,0,0,0,0,0,0,0],"sum_hessian":[6E0,2E0,4E0,1E0,1E0,1E0,3E0,1E0,2E0],"tree_param":{"num_deleted":"0","num_feature":"24","num_nodes":"9","size_leaf_vector":"1"}},{"base_weights":[-1.8931189E-1,5.338058E0,-8.8756466E-1,-2.0713657E-1,7.995656E0,5.545079E0,4.673882E-1,6.581227E0,6.0098145E-2,2.0986162E-1,1.5623204E-1],"categories":[],"categories_nodes":[],"categories_segments":[],"categories_sizes":[],"default_left":[0,0,0,0,0,0,0,0,0,0,0],"id":83,"left_children":[1,3,-1,-1,5,7,-1,9,-1,-1,-1],"loss_changes":[1.2836704E3,2.0975061E2,0E0,0E0,1.11418274E2,1.2214134E1,0E0,1.7851257E-1,0E0,0E0,0E0],"parents":[2147483647,0,0,1,1,4,4,5,5,7,7],"right_children":[2,4,-1,-1,6,8,-1,10,-1,-1,-1],"split_conditions":[3.155E2,3.05E2,-8.8756466E-1,-2.0713657E-1,2.7E1,1.8E1,4.673882E-1,3.059E2,6.0098145E-2,2.0986162E-1,1.5623204E-1],"split_indices":[0,0,0,0,4,3,0,0,0,0,0],"split_type":[0,0,0,0,0,0,0,0,0,0,0],"sum_hessian":[7E0,6E0,1E0,1E0,5E0,4E0,1E0,3E0,1E0,1E0,2E0],"tree_param":{"num_deleted":"0","num_feature":"24","num_nodes":"11","size_leaf_vector":"1"}},{"base_weights":[-3.525338E-1,-2.7101755E1,7.305721E0,-5.743059E-1,-8.641023E-1,2.7713253E0,4.9485013E-1,-2.0166065E-1,5.3999476E0,6.4078827E0,5.8508936E-2,2.0431471E-1,1.5207443E-1],"categories":[],"categories_nodes":[],"categories_segments":[],"categories_sizes":[],"default_left":[0,0,0,0,0,0,0,0,0,0,0,0,0],"id":84,"left_children":[1,3,5,-1,-1,7,-1,-1,9,11,-1,-1,-1],"loss_changes":[1.8519875E3,4.156482E1,3.51319E2,0E0,0E0,1.3595656E2,0E0,0E0,1.1538246E1,1.2171936E-1,0E0,0E0,0E0],"parents":[2147483647,0,0,1,1,2,2,5,5,8,8,9,9],"right_children":[2,4,6,-1,-1,8,-1,-1,10,12,-1,-1,-1],"split_conditions":[9E0,3.056E2,7.6E1,-5.743059E-1,-8.641023E-1,3.05E2,4.9485013E-1,-2.0166065E-1,1.6E1,3.059E2,5.8508936E-2,2.0431471E-1,1.5207443E-1],"split_indices":[6,0,18,0,0,0,0,0,7,0,0,0,0],"split_type":[0,0,0,0,0,0,0,0,0,0,0,0,0],"sum_hessian":[9E0,2E0,7E0,1E0,1E0,5E0,2E0,1E0,4E0,3E0,1E0,1E0,2E0],"tree_param":{"num_deleted":"0","num_feature":"24","num_nodes":"13","size_leaf_vector":"1"}},{"base_weights":[-3.4329385E-1,-1.3744347E1,1.03557825E1,-9.363695E-1,-2.6387316E1,5.1646576E0,4.8168215E-1,-1.9632994E-1,1.4254841E-1,-5.5912524E-1,-8.4126043E-1,1.7639658E-1,5.6961667E-2],"categories":[],"categories_nodes":[],"categories_segments":[],"categories_sizes":[],"default_left":[0,0,0,0,0,0,0,0,0,0,0,0,0],"id":85,"left_children":[1,3,5,7,9,11,-1,-1,-1,-1,-1,-1,-1],"loss_changes":[1.2947173E3,6.454684E2,1.9379553E2,8.1370834E1,3.9187744E1,1.1519379E1,0E0,0E0,0E0,0E0,0E0,0E0,0E0],"parents":[2147483647,0,0,1,1,2,2,3,3,4,4,5,5],"right_children":[2,4,6,8,10,12,-1,-1,-1,-1,-1,-1,-1],"split_conditions":[4E1,2.1E1,7.6E1,3.05E2,3.056E2,1.7E1,4.8168215E-1,-1.9632994E-1,1.4254841E-1,-5.5912524E-1,-8.4126043E-1,1.7639658E-1,5.6961667E-2],"split_indices":[21,3,18,0,0,3,0,0,0,0,0,0,0],"split_type":[0,0,0,0,0,0,0,0,0,0,0,0,0],"sum_hessian":[9E0,4E0,5E0,2E0,2E0,3E0,2E0,1E0,1E0,1E0,1E0,2E0,1E0],"tree_param":{"num_deleted":"0","num_feature":"24","num_nodes":"13","size_leaf_vector":"1"}},{"base_weights":[-4.208437E0,-2.5691748E1,4.400474E0,-5.443448E-1,-8.190228E-1,1.4138774E0,4.2921805E-1,4.332269E0,-1.9113958E-1,1.4378351E-1,5.5456355E-2],"categories":[1],"categories_nodes":[5],"categories_segments":[0],"categories_sizes":[1],"default_left":[0,0,0,0,0,1,0,0,0,0,0],"id":86,"left_children":[1,3,5,-1,-1,7,-1,9,-1,-1,-1],"loss_changes":[1.30178E3,3.6940918E1,1.7113083E2,0E0,0E0,1.0013025E2,0E0,5.799843E0,0E0,0E0,0E0],"parents":[2147483647,0,0,1,1,2,2,5,5,7,7],"right_children":[2,4,6,-1,-1,8,-1,10,-1,-1,-1],"split_conditions":[1.4E1,2.55E1,2.7E1,-5.443448E-1,-8.190228E-1,1E-45,4.2921805E-1,1.8E1,-1.9113958E-1,1.4378351E-1,5.5456355E-2],"split_indices":[4,3,4,0,0,12,0,3,0,0,0],"split_type":[0,0,0,0,0,1,0,0,0,0,0],"sum_hessian":[7E0,2E0,5E0,1E0,1E0,4E0,1E0,3E0,1E0,2E0,1E0],"tree_param":{"num_deleted":"0","num_feature":"24","num_nodes":"11","size_leaf_vector":"1"}},{"base_weights":[2.2260249E0,7.6373315E0,-7.973724E-1,4.6241653E-1,2.7457814E0,-1.8608636E-1,6.042742E0,1.9930507E-1,1.3995719E-1],"categories":[],"categories_nodes":[],"categories_segments":[],"categories_sizes":[],"default_left":[0,0,0,0,0,0,0,0,0],"id":87,"left_children":[1,3,-1,-1,5,-1,7,-1,-1],"loss_changes":[1.2139447E3,2.795275E2,0E0,0E0,1.2867795E2,0E0,1.0356369E0,0E0,0E0],"parents":[2147483647,0,0,1,1,4,4,6,6],"right_children":[2,4,-1,-1,6,-1,8,-1,-1],"split_conditions":[3.155E2,2.5E1,-7.973724E-1,4.6241653E-1,3.05E2,-1.8608636E-1,3.059E2,1.9930507E-1,1.3995719E-1],"split_indices":[0,14,0,0,0,0,0,0,0],"split_type":[0,0,0,0,0,0,0,0,0],"sum_hessian":[7E0,6E0,1E0,2E0,4E0,1E0,3E0,1E0,2E0],"tree_param":{"num_deleted":"0","num_feature":"24","num_nodes":"9","size_leaf_vector":"1"}},{"base_weights":[3.249639E0,-1.3535084E1,8.886951E0,-1.8116708E-1,-5.352226E-1,4.848574E0,4.5011258E-1,5.883718E0,4.1766543E-2,1.9403727E-1,1.3623318E-1],"categories":[],"categories_nodes":[],"categories_segments":[],"categories_sizes":[],"default_left":[0,0,0,0,0,0,0,0,0,0,0],"id":88,"left_children":[1,3,5,-1,-1,7,-1,9,-1,-1,-1],"loss_changes":[7.5913086E2,8.209326E1,1.8794238E2,0E0,0E0,1.2431236E1,0E0,9.381256E-1,0E0,0E0,0E0],"parents":[2147483647,0,0,1,1,2,2,5,5,7,7],"right_children":[2,4,6,-1,-1,8,-1,10,-1,-1,-1],"split_conditions":[3.056E2,3.05E2,7.6E1,-1.8116708E-1,-5.352226E-1,1.6E1,4.5011258E-1,3.059E2,4.1766543E-2,1.9403727E-1,1.3623318E-1],"split_indices":[0,0,18,0,0,7,0,0,0,0,0],"split_type":[0,0,0,0,0,0,0,0,0,0,0],"sum_hessian":[8E0,2E0,6E0,1E0,1E0,4E0,2E0,3E0,1E0,1E0,2E0],"tree_param":{"num_deleted":"0","num_feature":"24","num_nodes":"11","size_leaf_vector":"1"}},{"base_weights":[-2.3773754E0,-2.451931E1,5.016353E0,-5.2107453E-1,-7.798959E-1,4.7281897E-1,2.4193323E0,-1.7637846E-1,4.7219353E0,5.7289076E0,4.066297E-2,1.8890823E-1,1.3260825E-1],"categories":[],"categories_nodes":[],"categories_segments":[],"categories_sizes":[],"default_left":[0,0,0,0,0,0,0,0,0,0,0,0,0],"id":89,"left_children":[1,3,5,-1,-1,-1,7,-1,9,11,-1,-1,-1],"loss_changes":[1.316419E3,3.209314E1,1.937581E2,0E0,0E0,0E0,1.0407556E2,0E0,1.1749672E1,8.4674835E-1,0E0,0E0,0E0],"parents":[2147483647,0,0,1,1,2,2,6,6,8,8,9,9],"right_children":[2,4,6,-1,-1,-1,8,-1,10,12,-1,-1,-1],"split_conditions":[1.4E1,3.056E2,1.6E1,-5.2107453E-1,-7.798959E-1,4.7281897E-1,3.05E2,-1.7637846E-1,1.8E1,3.059E2,4.066297E-2,1.8890823E-1,1.3260825E-1],"split_indices":[4,0,4,0,0,0,0,0,3,0,0,0,0],"split_type":[0,0,0,0,0,0,0,0,0,0,0,0,0],"sum_hessian":[8E0,2E0,6E0,1E0,1E0,1E0,5E0,1E0,4E0,3E0,1E0,1E0,2E0],"tree_param":{"num_deleted":"0","num_feature":"24","num_nodes":"13","size_leaf_vector":"1"}},{"base_weights":[3.1244733E0,-1.2832847E1,8.485041E0,-1.7171569E-1,-5.073008E-1,6.6742334E0,4.6031985E-1,3.9267588E-1,4.5986423E0,5.5781884E0,3.9588436E-2,1.8391472E-1,1.2907915E-1],"categories":[0],"categories_nodes":[8],"categories_segments":[0],"categories_sizes":[1],"default_left":[0,0,0,0,0,0,0,0,1,0,0,0,0],"id":90,"left_children":[1,3,5,-1,-1,7,-1,-1,9,11,-1,-1,-1],"loss_changes":[6.862597E2,7.355148E1,8.964584E1,0E0,0E0,7.9321396E1,0E0,0E0,1.1104561E1,7.6125336E-1,0E0,0E0,0E0],"parents":[2147483647,0,0,1,1,2,2,5,5,8,8,9,9],"right_children":[2,4,6,-1,-1,8,-1,-1,10,12,-1,-1,-1],"split_conditions":[3.056E2,3.05E2,6.9E1,-1.7171569E-1,-5.073008E-1,5.7E1,4.6031985E-1,3.9267588E-1,1E-45,3.059E2,3.9588436E-2,1.8391472E-1,1.2907915E-1],"split_indices":[0,0,1,0,0,1,0,0,10,0,0,0,0],"split_type":[0,0,0,0,0,0,0,0,1,0,0,0,0],"sum_hessian":[8E0,2E0,6E0,1E0,1E0,5E0,1E0,1E0,4E0,3E0,1E0,1E0,2E0],"tree_param":{"num_deleted":"0","num_feature":"24","num_nodes":"13","size_leaf_vector":"1"}},{"base_weights":[-5.162085E-1,-2.3849783E1,6.1618295E0,-4.9389017E-1,-7.714481E-1,2.293982E0,4.199543E-1,-1.6717716E-1,4.4786196E0,5.43148E0,3.854133E-2,1.790535E-1,1.2564422E-1],"categories":[],"categories_nodes":[],"categories_segments":[],"categories_sizes":[],"default_left":[0,0,0,0,0,0,0,0,0,0,0,0,0],"id":91,"left_children":[1,3,5,-1,-1,7,-1,-1,9,11,-1,-1,-1],"loss_changes":[1.4090725E3,3.981665E1,2.5498233E2,0E0,0E0,9.358862E1,0E0,0E0,1.0494308E1,6.8123627E-1,0E0,0E0,0E0],"parents":[2147483647,0,0,1,1,2,2,5,5,8,8,9,9],"right_children":[2,4,6,-1,-1,8,-1,-1,10,12,-1,-1,-1],"split_conditions":[1.4E1,2.55E1,7.6E1,-4.9389017E-1,-7.714481E-1,1E1,4.199543E-1,-1.6717716E-1,1.8E1,1.5E1,3.854133E-2,1.790535E-1,1.2564422E-1],"split_indices":[4,3,18,0,0,5,0,0,3,3,0,0,0],"split_type":[0,0,0,0,0,0,0,0,0,0,0,0,0],"sum_hessian":[9E0,2E0,7E0,1E0,1E0,5E0,2E0,1E0,4E0,3E0,1E0,1E0,2E0],"tree_param":{"num_deleted":"0","num_feature":"24","num_nodes":"13","size_leaf_vector":"1"}},{"base_weights":[2.7293622E0,-1.2167231E1,8.734267E0,-1.6275802E-1,-4.8083442E-1,4.2853785E0,4.0877903E-1,1.5092945E-1,3.7523266E-2],"categories":[],"categories_nodes":[],"categories_segments":[],"categories_sizes":[],"default_left":[0,0,0,0,0,0,0,0,0],"id":92,"left_children":[1,3,5,-1,-1,7,-1,-1,-1],"loss_changes":[6.2825964E2,6.5887115E1,1.4178049E2,0E0,0E0,1.0572166E1,0E0,0E0,0E0],"parents":[2147483647,0,0,1,1,2,2,5,5],"right_children":[2,4,6,-1,-1,8,-1,-1,-1],"split_conditions":[3.056E2,3.05E2,7.6E1,-1.6275802E-1,-4.8083442E-1,5.381E0,4.0877903E-1,1.5092945E-1,3.7523266E-2],"split_indices":[0,0,18,0,0,2,0,0,0],"split_type":[0,0,0,0,0,0,0,0,0],"sum_hessian":[7E0,2E0,5E0,1E0,1E0,3E0,2E0,2E0,1E0],"tree_param":{"num_deleted":"0","num_feature":"24","num_nodes":"9","size_leaf_vector":"1"}},{"base_weights":[-1.221137E0,-2.3057432E1,6.0677023E0,-4.6812394E-1,-7.550453E-1,1.6021854E0,3.9790258E-1,-1.5845504E-1,4.172739E0,3.6531016E-2,1.4691311E-1],"categories":[],"categories_nodes":[],"categories_segments":[],"categories_sizes":[],"default_left":[0,0,0,0,0,0,0,0,0,0,0],"id":93,"left_children":[1,3,5,-1,-1,7,-1,-1,9,-1,-1],"loss_changes":[1.2798064E3,4.427527E1,2.3318512E2,0E0,0E0,7.762495E1,0E0,0E0,9.982491E0,0E0,0E0],"parents":[2147483647,0,0,1,1,2,2,5,5,8,8],"right_children":[2,4,6,-1,-1,8,-1,-1,10,-1,-1],"split_conditions":[1.4E1,3.056E2,7.6E1,-4.6812394E-1,-7.550453E-1,3.05E2,3.9790258E-1,-1.5845504E-1,6E1,3.6531016E-2,1.4691311E-1],"split_indices":[4,0,18,0,0,0,0,0,1,0,0],"split_type":[0,0,0,0,0,0,0,0,0,0,0],"sum_hessian":[8E0,2E0,6E0,1E0,1E0,4E0,2E0,1E0,3E0,1E0,2E0],"tree_param":{"num_deleted":"0","num_feature":"24","num_nodes":"11","size_leaf_vector":"1"}},{"base_weights":[-5.560666E-1,-1.1627775E1,8.278862E0,-1.6985899E1,1.1547855E-1,4.0630975E0,3.8731527E-1,-1.5426663E-1,-2.2449884E1,5.3387847E0,3.5564583E-2,-7.3508656E-1,-4.5574903E-1,1.6644628E-1,1.1373607E-1],"categories":[],"categories_nodes":[],"categories_segments":[],"categories_sizes":[],"default_left":[0,0,0,0,0,0,0,0,0,0,0,0,0,0,0],"id":94,"left_children":[1,3,5,7,-1,9,-1,-1,11,13,-1,-1,-1,-1,-1],"loss_changes":[8.8344226E2,3.4561493E2,1.2708322E2,1.789096E2,0E0,9.42487E0,0E0,0E0,4.1788513E1,1.2016296E-2,0E0,0E0,0E0,0E0,0E0],"parents":[2147483647,0,0,1,1,2,2,3,3,5,5,8,8,9,9],"right_children":[2,4,6,8,-1,10,-1,-1,12,14,-1,-1,-1,-1,-1],"split_conditions":[4E1,4.929E0,7.6E1,4.207E0,1.1547855E-1,5.381E0,3.8731527E-1,-1.5426663E-1,4.308E0,5.145E0,3.5564583E-2,-7.3508656E-1,-4.5574903E-1,1.6644628E-1,1.1373607E-1],"split_indices":[21,2,18,2,0,2,0,0,2,2,0,0,0,0,0],"split_type":[0,0,0,0,0,0,0,0,0,0,0,0,0,0,0],"sum_hessian":[9E0,4E0,5E0,3E0,1E0,3E0,2E0,1E0,2E0,2E0,1E0,1E0,1E0,1E0,1E0],"tree_param":{"num_deleted":"0","num_feature":"24","num_nodes":"15","size_leaf_vector":"1"}},{"base_weights":[-2.540979E0,-2.1858406E1,3.9074433E0,-4.437017E-1,-7.156554E-1,-1.5018792E-1,5.8499494E0,3.3963168E-1,4.068971E0,4.935065E0,3.4623962E-2,1.620465E-1,1.14302486E-1],"categories":[],"categories_nodes":[],"categories_segments":[],"categories_sizes":[],"default_left":[0,0,0,0,0,0,0,0,0,0,0,0,0],"id":95,"left_children":[1,3,5,-1,-1,-1,7,-1,9,11,-1,-1,-1],"loss_changes":[1.0020101E3,3.9435913E1,1.11609604E2,0E0,0E0,0E0,5.7790558E1,0E0,8.635345E0,3.5865784E-1,0E0,0E0,0E0],"parents":[2147483647,0,0,1,1,2,2,6,6,8,8,9,9],"right_children":[2,4,6,-1,-1,-1,8,-1,10,12,-1,-1,-1],"split_conditions":[1.4E1,3.056E2,3.05E2,-4.437017E-1,-7.156554E-1,-1.5018792E-1,5.7E1,3.3963168E-1,1.6E1,3.059E2,3.4623962E-2,1.620465E-1,1.14302486E-1],"split_indices":[4,0,0,0,0,0,1,0,7,0,0,0,0],"split_type":[0,0,0,0,0,0,0,0,0,0,0,0,0],"sum_hessian":[8E0,2E0,6E0,1E0,1E0,1E0,5E0,1E0,4E0,3E0,1E0,1E0,2E0],"tree_param":{"num_deleted":"0","num_feature":"24","num_nodes":"13","size_leaf_vector":"1"}},{"base_weights":[-3.6978977E0,-2.1282541E1,3.3439837E0,-4.3197218E-1,-6.9673735E-1,1.0232242E0,3.3065304E-1,-1.4621732E-1,3.2480073E0,3.3709157E-2,1.1126059E-1],"categories":[],"categories_nodes":[],"categories_segments":[],"categories_sizes":[],"default_left":[0,0,0,0,0,0,0,0,0,0,0],"id":96,"left_children":[1,3,5,-1,-1,7,-1,-1,9,-1,-1],"loss_changes":[8.7207623E2,3.7210632E1,1.0255141E2,0E0,0E0,5.7781525E1,0E0,0E0,4.551893E0,0E0,0E0],"parents":[2147483647,0,0,1,1,2,2,5,5,8,8],"right_children":[2,4,6,-1,-1,8,-1,-1,10,-1,-1],"split_conditions":[1.4E1,3.056E2,2.7E1,-4.3197218E-1,-6.9673735E-1,3.05E2,3.3065304E-1,-1.4621732E-1,3.084E2,3.3709157E-2,1.1126059E-1],"split_indices":[4,0,4,0,0,0,0,0,0,0,0],"split_type":[0,0,0,0,0,0,0,0,0,0,0],"sum_hessian":[7E0,2E0,5E0,1E0,1E0,4E0,1E0,1E0,3E0,1E0,2E0],"tree_param":{"num_deleted":"0","num_feature":"24","num_nodes":"11","size_leaf_vector":"1"}},{"base_weights":[-2.5009408E0,4.793313E0,-2.0721924E1,4.0157548E-1,2.1651626E0,-4.2055404E-1,-6.783194E-1,4.72038E0,-1.4235158E-1,1.082999E-1,1.568723E-1],"categories":[],"categories_nodes":[],"categories_segments":[],"categories_sizes":[],"default_left":[0,0,0,0,0,0,0,0,0,0,0],"id":97,"left_children":[1,3,5,-1,7,-1,-1,9,-1,-1,-1],"loss_changes":[9.3582806E2,1.3138162E2,3.510547E1,0E0,7.694724E1,0E0,0E0,5.2492523E-1,0E0,0E0,0E0],"parents":[2147483647,0,0,1,1,2,2,4,4,7,7],"right_children":[2,4,6,-1,8,-1,-1,10,-1,-1,-1],"split_conditions":[2.1E1,2.5E1,7.1E1,4.0157548E-1,6.9E1,-4.2055404E-1,-6.783194E-1,6.2E1,-1.4235158E-1,1.082999E-1,1.568723E-1],"split_indices":[3,16,1,0,1,0,0,1,0,0,0],"split_type":[0,0,0,0,0,0,0,0,0,0,0],"sum_hessian":[7E0,5E0,2E0,1E0,4E0,1E0,1E0,3E0,1E0,2E0,1E0],"tree_param":{"num_deleted":"0","num_feature":"24","num_nodes":"11","size_leaf_vector":"1"}},{"base_weights":[-1.9056904E0,3.8071468E0,-6.6038877E-1,6.86004E0,-1.385891E-1,3.330296E-1,1.05418794E-1],"categories":[],"categories_nodes":[],"categories_segments":[],"categories_sizes":[],"default_left":[0,0,0,0,0,0,0],"id":98,"left_children":[1,3,-1,5,-1,-1,-1],"loss_changes":[6.558891E2,1.1076233E2,0E0,4.6014633E1,0E0,0E0,0E0],"parents":[2147483647,0,0,1,1,3,3],"right_children":[2,4,-1,6,-1,-1,-1],"split_conditions":[2.4E1,6.2E1,-6.6038877E-1,5.7E1,-1.385891E-1,3.330296E-1,1.05418794E-1],"split_indices":[3,1,0,1,0,0,0],"split_type":[0,0,0,0,0,0,0],"sum_hessian":[5E0,4E0,1E0,3E0,1E0,1E0,2E0],"tree_param":{"num_deleted":"0","num_feature":"24","num_nodes":"7","size_leaf_vector":"1"}},{"base_weights":[-1.6317891E0,1.5822245E0,-6.4293164E-1,-9.974693E0,6.2489853E0,-1.3492504E-1,-3.919805E-1,4.0490637E0,3.946249E-1,1.5638988E-1,3.3798687E0,6.1392102E-2,1.02614015E-1],"categories":[],"categories_nodes":[],"categories_segments":[],"categories_sizes":[],"default_left":[0,0,0,0,0,0,0,0,0,0,0,0,0],"id":99,"left_children":[1,3,-1,5,7,-1,-1,9,-1,-1,11,-1,-1],"loss_changes":[5.8001227E2,3.7852405E2,0E0,4.2396927E1,8.996585E1,0E0,0E0,3.166626E0,0E0,0E0,4.4731903E-1,0E0,0E0],"parents":[2147483647,0,0,1,1,3,3,4,4,7,7,10,10],"right_children":[2,4,-1,6,8,-1,-1,10,-1,-1,12,-1,-1],"split_conditions":[3.155E2,3.056E2,-6.4293164E-1,3.05E2,6.9E1,-1.3492504E-1,-3.919805E-1,3.059E2,3.946249E-1,1.5638988E-1,3.084E2,6.1392102E-2,1.02614015E-1],"split_indices":[0,0,0,0,1,0,0,0,0,0,0,0,0],"split_type":[0,0,0,0,0,0,0,0,0,0,0,0,0],"sum_hessian":[8E0,7E0,1E0,2E0,5E0,1E0,1E0,4E0,1E0,1E0,3E0,1E0,2E0],"tree_param":{"num_deleted":"0","num_feature":"24","num_nodes":"13","size_leaf_vector":"1"}},{"base_weights":[2.7458627E0,-9.7129755E0,7.77174E0,-1.3135777E-1,-3.8161916E-1,3.9712605E0,3.571724E-1,1.5225631E-1,8.059074E-2],"categories":[],"categories_nodes":[],"categories_segments":[],"categories_sizes":[],"default_left":[0,0,0,0,0,0,0,0,0],"id":100,"left_children":[1,3,5,-1,-1,7,-1,-1,-1],"loss_changes":[4.3986365E2,4.010875E1,1.0269534E2,0E0,0E0,3.4425354E0,0E0,0E0,0E0],"parents":[2147483647,0,0,1,1,2,2,5,5],"right_children":[2,4,6,-1,-1,8,-1,-1,-1],"split_conditions":[3.056E2,3.05E2,6.4E1,-1.3135777E-1,-3.8161916E-1,3.059E2,3.571724E-1,1.5225631E-1,8.059074E-2],"split_indices":[0,0,21,0,0,0,0,0,0],"split_type":[0,0,0,0,0,0,0,0,0],"sum_hessian":[7E0,2E0,5E0,1E0,1E0,3E0,2E0,1E0,2E0],"tree_param":{"num_deleted":"0","num_feature":"24","num_nodes":"9","size_leaf_vector":"1"}},{"base_weights":[-2.6805484E0,-1.8856556E1,3.7929354E0,-3.715321E-1,-6.280664E-1,1.1683713E0,3.7475085E-1,-1.278857E-1,3.2111833E0,5.76393E-2,9.7740166E-2],"categories":[],"categories_nodes":[],"categories_segments":[],"categories_sizes":[],"default_left":[0,0,0,0,0,0,0,0,0,0,0],"id":101,"left_children":[1,3,5,-1,-1,7,-1,-1,9,-1,-1],"loss_changes":[7.376004E2,3.6187683E1,1.3169702E2,0E0,0E0,4.8691677E1,0E0,0E0,4.2656136E-1,0E0,0E0],"parents":[2147483647,0,0,1,1,2,2,5,5,8,8],"right_children":[2,4,6,-1,-1,8,-1,-1,10,-1,-1],"split_conditions":[9E0,3.056E2,7.6E1,-3.715321E-1,-6.280664E-1,3.05E2,3.7475085E-1,-1.278857E-1,3.084E2,5.76393E-2,9.7740166E-2],"split_indices":[6,0,18,0,0,0,0,0,0,0,0],"split_type":[0,0,0,0,0,0,0,0,0,0,0],"sum_hessian":[7E0,2E0,5E0,1E0,1E0,4E0,1E0,1E0,3E0,1E0,2E0],"tree_param":{"num_deleted":"0","num_feature":"24","num_nodes":"11","size_leaf_vector":"1"}},{"base_weights":[-1.13202535E-1,-1.8360073E1,5.103834E0,-3.6171126E-1,-6.114644E-1,-1.245056E-1,6.760695E0,5.3263793E0,3.648445E-1,3.0216664E-1,3.7680922E0,1.4670779E-1,3.1272051E0,5.611624E-2,9.514002E-2],"categories":[],"categories_nodes":[],"categories_segments":[],"categories_sizes":[],"default_left":[0,0,0,0,0,0,0,0,0,0,0,0,0,0,0],"id":102,"left_children":[1,3,5,-1,-1,-1,7,9,-1,-1,11,-1,13,-1,-1],"loss_changes":[8.612444E2,3.4154907E1,1.14052734E2,0E0,0E0,0E0,5.5373108E1,4.3704056E1,0E0,0E0,2.8826752E0,0E0,3.7852097E-1,0E0,0E0],"parents":[2147483647,0,0,1,1,2,2,6,6,7,7,10,10,12,12],"right_children":[2,4,6,-1,-1,-1,8,10,-1,-1,12,-1,14,-1,-1],"split_conditions":[1.4E1,3.056E2,3.05E2,-3.6171126E-1,-6.114644E-1,-1.245056E-1,6.9E1,5.7E1,3.648445E-1,3.0216664E-1,3.059E2,1.4670779E-1,3.084E2,5.611624E-2,9.514002E-2],"split_indices":[4,0,0,0,0,0,1,1,0,0,0,0,0,0,0],"split_type":[0,0,0,0,0,0,0,0,0,0,0,0,0,0,0],"sum_hessian":[9E0,2E0,7E0,1E0,1E0,1E0,6E0,5E0,1E0,1E0,4E0,1E0,3E0,1E0,2E0],"tree_param":{"num_deleted":"0","num_feature":"24","num_nodes":"15","size_leaf_vector":"1"}},{"base_weights":[-3.9920843E-1,5.428454E0,-1.7876717E1,3.2882172E-1,1.9381498E0,-5.953012E-1,-3.5215014E-1,-1.2121425E-1,4.152666E0,1.4282914E-1,9.260809E-2],"categories":[],"categories_nodes":[],"categories_segments":[],"categories_sizes":[],"default_left":[0,0,0,0,0,0,0,0,0,0,0],"id":103,"left_children":[1,3,5,-1,7,-1,-1,-1,9,-1,-1],"loss_changes":[8.193295E2,1.4127748E2,3.2231873E1,0E0,5.7638527E1,0E0,0E0,0E0,9.134865E-1,0E0,0E0],"parents":[2147483647,0,0,1,1,2,2,4,4,8,8],"right_children":[2,4,6,-1,8,-1,-1,-1,10,-1,-1],"split_conditions":[2.4E1,2.6E1,4.308E0,3.2882172E-1,4.207E0,-5.953012E-1,-3.5215014E-1,-1.2121425E-1,5.145E0,1.4282914E-1,9.260809E-2],"split_indices":[3,15,2,0,2,0,0,0,2,0,0],"split_type":[0,0,0,0,0,0,0,0,0,0,0],"sum_hessian":[8E0,6E0,2E0,2E0,4E0,1E0,1E0,1E0,3E0,1E0,2E0],"tree_param":{"num_deleted":"0","num_feature":"24","num_nodes":"11","size_leaf_vector":"1"}},{"base_weights":[-1.2156335E0,9.122204E0,-9.010763E0,3.2007286E-1,8.6730756E-2,-4.675514E0,-5.795648E-1,-4.816915E-1,-3.4284076E-1,-1.1801E-1,8.8426456E-2],"categories":[1,0,1,4,2],"categories_nodes":[0,1,5],"categories_segments":[0,1,4],"categories_sizes":[1,3,1],"default_left":[1,1,0,0,0,1,0,0,0,0,0],"id":104,"left_children":[1,3,5,-1,-1,7,-1,9,-1,-1,-1],"loss_changes":[5.662426E2,4.7344955E1,2.144035E2,0E0,0E0,1.0059715E2,0E0,3.0244297E1,0E0,0E0,0E0],"parents":[2147483647,0,0,1,1,2,2,5,5,7,7],"right_children":[2,4,6,-1,-1,8,-1,10,-1,-1,-1],"split_conditions":[1E-45,1E-45,3.087E2,3.2007286E-1,8.6730756E-2,1E-45,-5.795648E-1,3.05E2,-3.4284076E-1,-1.1801E-1,8.8426456E-2],"split_indices":[8,8,0,0,0,12,0,0,0,0,0],